{
  "version": 1,
  "stateSize": 6,
  "actionSize": 2,
  "hiddenSizes": [
    32,
    32
  ],
  "trainedAt": 1777146503437,
  "totalSteps": 1134000,
  "trainingSource": "offline-synthetic-data",
  "seed": 12345,
  "metrics": {
    "fixed": {
      "queue": 217.11046846535518,
      "reward": -3.4714422688722193,
      "switches": 48.0
    },
    "rl": {
      "queue": 230.00633117150147,
      "reward": -3.803667830393151,
      "switches": 25.1875
    },
    "queue_improvement_pct": -5.9397701074944305,
    "reward_improvement_pct": -9.570245903264384,
    "validation_accuracy": 0.8635714285714285
  },
  "layers": [
    {
      "W": [
        -0.08905713208640662,
        0.018090664530297722,
        0.2246975513993252,
        -0.42290060765500953,
        -0.2544596733438267,
        0.2716948817085972,
        -0.32832076676012595,
        -0.1310755428043289,
        0.47730219036205057,
        0.42877472201676375,
        -0.3020516471369159,
        -0.106464447222897,
        -0.510330525263483,
        -0.18232667581252518,
        0.2380412299744883,
        -0.07026728707569585,
        0.6170276438188341,
        -0.10201659404295767,
        -0.3199398261080756,
        -0.0006075154332774374,
        0.022544300917395,
        -0.381169421436877,
        -0.0784358207863086,
        0.09369775234358795,
        -0.8354000797728924,
        1.2772738140893576,
        0.9271801486186235,
        -0.11022415608446197,
        1.432090966330922,
        0.06440724132794724,
        0.6845339262019017,
        -0.7191764253258007,
        0.0957846678795829,
        0.22174700677937964,
        -1.0323460405122287,
        0.6304566460307162,
        -0.830876744941721,
        -0.43597745369377167,
        0.055453636288582235,
        0.7034961771720974,
        -0.23765712617543353,
        -1.0452296512289503,
        0.17001243430104332,
        -0.37898874118152137,
        0.28232044614997487,
        -0.29715274110301965,
        0.23678754504102792,
        -0.6996325498367499,
        0.3200661417489985,
        0.6909394782639788,
        -1.445170323670514,
        -0.1471932639530519,
        0.38781195096910004,
        0.06319859213804115,
        1.0721577067113641,
        -0.10104804827698935,
        0.2076102271596067,
        0.33827976517631286,
        -0.3379500464961828,
        -0.07756008292613396,
        -0.04623048185517506,
        0.20306275200253007,
        -0.05699289418665195,
        -0.2268151693905684,
        1.2941825970855065,
        -0.0497628773624011,
        0.24223731659900516,
        -0.9603183066282843,
        -0.5853145227939919,
        0.6478406491481941,
        0.030701141790016217,
        -0.6610643493424383,
        0.7682423781380554,
        0.2969073526295381,
        -0.35585689629760503,
        0.707996294331585,
        -1.252611719943063,
        0.6698055263984107,
        0.2917363722818867,
        0.9347216732002276,
        -0.23009483538086237,
        -0.7042744606063894,
        0.30644015404555724,
        0.16903772853743415,
        0.44341708621137976,
        -0.0969443613745026,
        0.2491255743896966,
        0.41550696946406473,
        -0.6874136127823948,
        -0.16105391323041135,
        0.03818517741712671,
        0.009586951644518615,
        -0.34845561785044915,
        0.03179220564233645,
        -0.8079857228725817,
        -0.6461116638604311,
        0.5579102350633428,
        0.3652924184246827,
        -0.8477014964680573,
        0.5835134778569662,
        0.5805666901706433,
        -0.17285014790386632,
        0.03585768201990801,
        1.1811374595369344,
        0.5302491849324861,
        0.07933144951471775,
        -0.2605160779778918,
        0.24550337115980125,
        -0.29728722846726974,
        -0.6346725351372032,
        0.004585138609404776,
        0.5882752108621533,
        -0.16676628664710447,
        -0.4783040520885882,
        0.5875713169166039,
        0.2692070051078624,
        0.2994726317646785,
        0.746328545604922,
        0.09067315680746622,
        0.3000397647194979,
        0.3733194094632883,
        -0.3196132796630208,
        -0.1956255279172575,
        0.7102281429242626,
        -0.2751134540087181,
        -0.7726189480484718,
        0.13580643348615976,
        -0.42742222614827696,
        -0.5118318580042464,
        0.26868078498084635,
        -0.7502601010042569,
        -0.10296184103058909,
        -0.14529153632287484,
        -0.11891255922533721,
        -0.6256267283992132,
        0.6449944424219854,
        0.9249784967157721,
        0.19125149243609746,
        -0.2243589589803205,
        -0.532542805955138,
        -0.4294725267117269,
        0.1266792655206334,
        -0.03630051710808462,
        -0.6740532417117686,
        -0.05031802713443739,
        0.07541615370718695,
        -0.7390316616418676,
        1.0843610691633099,
        -0.2765807922542431,
        -0.7166129288155043,
        0.1272946866799503,
        -0.01670738843591835,
        -0.32668061610375426,
        -0.2568667737031783,
        -0.30310491142886664,
        0.18578912130419706,
        -0.6988712683396552,
        1.0261124213717314,
        -0.1966403186098905,
        -1.1040186485884855,
        0.4263108865465305,
        0.21491860747823702,
        0.0389640058872639,
        -0.16026751789269172,
        0.09311969507550551,
        0.22978931919050474,
        0.1425456956758548,
        -0.4102146619510043,
        -0.07053477021729848,
        0.040177229716524016,
        0.5758025657735253,
        0.4940298524865733,
        0.13563542482287866,
        -0.5110527590319108,
        -0.05281248707419971,
        0.13205622302983297,
        0.29727240724576304,
        0.18003142513146242,
        0.2117504605331525,
        0.7519907384306967,
        -1.048580579940628,
        1.235090499428612,
        -0.2732559763990386,
        1.1177413057776584,
        0.525106214026517,
        0.3573547532326039,
        -0.8076718818531108,
        -0.3021504123105367,
        -0.5801531596121812,
        0.4486065709573829,
        0.062491946372294514,
        -0.3260220417949321
      ],
      "b": [
        0.008417899408370235,
        -0.16413517062828092,
        0.0056830582168059165,
        0.0892427568152078,
        0.009947751779109634,
        -0.04636102256995708,
        -0.0433186740238501,
        0.049724692354858414,
        0.104048095230118,
        -0.037312792705665974,
        0.08989552757067443,
        0.09324416682793832,
        0.00033990263106241353,
        -0.022153662388037808,
        -0.046155932185059194,
        -0.016656098869726587,
        0.005064590539978187,
        0.054842469343568255,
        0.014114876512213551,
        -0.06452598889669886,
        0.21022045490126978,
        -0.007459905688153188,
        0.07037481381419386,
        -0.061871341576893765,
        -0.09697304072552684,
        0.04786245030978554,
        -0.0260366243418595,
        0.1887749076851547,
        0.11370708805187274,
        -0.05647112687727753,
        0.0227130787487253,
        0.0
      ]
    },
    {
      "W": [
        -0.33715323642092426,
        -0.06570319255068968,
        0.023779903024412744,
        -0.16165308267242987,
        -0.047759117277322426,
        0.04204528150267881,
        -0.25972521436378315,
        -0.4290875453752407,
        -0.271057861098355,
        0.3771110019093508,
        -0.05727474952103176,
        -0.05454225484833181,
        -0.07543441866107746,
        0.011967650016241844,
        -0.19418262192812374,
        0.4071685083451524,
        0.18567416896732256,
        0.22886640901478097,
        0.11941419238321513,
        0.05216500562348905,
        0.1392234507016987,
        -0.03865123918395593,
        0.2844094933881723,
        0.5017306415382038,
        -0.027149071995909088,
        0.1558356441911977,
        0.2395162847048598,
        0.14598167008198126,
        0.15879401683244995,
        0.11630582221767567,
        0.08223289717431029,
        0.40931109745817895,
        0.17906528896285231,
        0.28351714503813746,
        0.02010202766028389,
        0.7891344669910672,
        0.5666591879780043,
        -0.04244576777848272,
        0.2563398070667783,
        -0.1865216945921012,
        0.31889040431062254,
        -0.1564664707659609,
        0.23394244242889242,
        0.34208538276742856,
        0.024889654380360747,
        -0.03633246663423771,
        0.1397490821717461,
        0.4088898883372714,
        0.03915705064255542,
        -0.31854553496345417,
        0.12873833717159297,
        0.15388111045454608,
        0.04794498572468791,
        0.6972442522362241,
        0.04125702623429221,
        0.2283153043236835,
        -0.15072289149004228,
        -0.3492647539484212,
        -0.3354364806964814,
        -0.14302581094237055,
        0.3624056065192078,
        -0.4355340025128948,
        0.06433460738699533,
        0.04157891892024382,
        0.46965874041595923,
        -0.28361965110779086,
        -0.17010432451375335,
        0.18629333545427434,
        -0.10401613928668746,
        -0.23959006582968465,
        0.14508617065941976,
        0.12159711906380939,
        -0.10681215182938618,
        0.3051569760185781,
        0.19068180765394252,
        0.3552699550154543,
        0.24201814081722595,
        -0.0465000491414328,
        -0.3214863321523843,
        -0.15201038450251603,
        0.10380106919595182,
        -0.33623078667531203,
        -0.3966641335314704,
        -0.04188969281499526,
        0.5867824526849492,
        0.0881116039638642,
        0.3094827323153459,
        -0.22934039353588812,
        0.10613126553883662,
        0.3343685857709094,
        0.24782338479712665,
        0.043856284576148354,
        0.06927425230997647,
        0.31464075912968764,
        -0.0009326975966920694,
        0.11002535883341594,
        0.047403629121751195,
        -0.18301263013873634,
        -0.03333650952155982,
        -0.021962857161893706,
        -0.4065627954113354,
        -0.16372682618433734,
        0.050105991185426246,
        -0.2176985168666401,
        0.24013101943674278,
        0.25172631759179276,
        -0.08319365870972895,
        0.1897869503142327,
        0.06196749998020906,
        0.24173365456422022,
        -0.10770550766276904,
        -0.23131158206757887,
        -0.25375230008205796,
        -0.32091649451138166,
        0.12487741080166183,
        -0.3016003117787983,
        0.30371364441456694,
        -0.018694294048625045,
        -0.3555651238605725,
        -0.09443147174510612,
        0.3972328803839839,
        -0.07553393962219583,
        0.1272985743939858,
        -0.07527682053189413,
        -0.3441350585655625,
        0.20239408350780635,
        -0.0645748522404022,
        -0.466052801624744,
        -0.022848702639473008,
        0.2162014339895534,
        -0.2122455585732927,
        0.1298417499813336,
        0.20750390923485085,
        0.13748135247969426,
        -0.25642255672075337,
        -0.31982492447343586,
        0.04417626042269782,
        0.345750848096372,
        -0.000712833558692878,
        -0.14561281414753643,
        0.14707584286373956,
        0.013286160870750952,
        -0.23905880049684702,
        -0.49868772552684987,
        -0.16529775447946565,
        0.1406605076882132,
        -0.15141696479981323,
        -0.1565715791220953,
        0.18248450588041012,
        0.045726245990195966,
        -0.2229158141488342,
        -0.16368023042394997,
        -0.140839931203317,
        0.20462026152723253,
        0.2780737912997253,
        0.3233883829450073,
        -0.26897071777588105,
        0.27419512177970234,
        -0.4894084374691094,
        -0.22170503709492356,
        0.03605921593798047,
        -0.1275458800286927,
        -0.03307610507292757,
        0.010267026736714879,
        0.005851406674976054,
        -0.17927542492881826,
        0.17430197871909237,
        -0.026190626504262297,
        -0.2892251954217417,
        -0.013056537645346025,
        0.14852500446420022,
        -0.30054608348554906,
        0.16098177830530291,
        -0.14924692468899248,
        0.12706272380889838,
        0.0909946895074833,
        0.3666363224633613,
        0.1123760465161251,
        -0.16297943359732575,
        -0.3851660296107188,
        0.030004395199835006,
        -0.12787012969316297,
        0.3412430093256627,
        0.13866705673507249,
        0.2372081455902639,
        0.001482282246303064,
        -0.3098229426674642,
        -0.19546607258466156,
        -0.4574433548839188,
        -0.39569612347742655,
        0.2189575617048387,
        -0.03380669147618235,
        -0.021324353668641348,
        0.04775192330874347,
        0.19395107641407366,
        0.18425000663350274,
        -0.11530537356536827,
        -0.14144894613858647,
        0.3082550956673362,
        0.22224423516566508,
        -0.137925691182213,
        -0.2596185374756064,
        0.1024076898807101,
        0.1282904375851128,
        -0.055538088864877405,
        0.4861325642787719,
        0.06805723182029394,
        -0.035035211756785395,
        0.5075106213297739,
        -0.2136372095331159,
        0.048721096120110344,
        -0.17589577406253457,
        0.4461515411008899,
        -0.09382596056680366,
        0.04390167647433194,
        0.0500654929579225,
        -0.2362593116147355,
        0.22824858193834213,
        0.6143001417916188,
        0.09522978602519389,
        -0.1405648923612373,
        -0.2649020676862782,
        -0.11759413921698963,
        0.005985335881544071,
        -0.008288617219125969,
        -0.4112059171065209,
        0.4838254770495807,
        0.05134929545026409,
        -0.353915247494525,
        0.4562380923704981,
        -0.08584173178482753,
        0.1444430652862786,
        0.075586550109998,
        0.21456184074915546,
        0.13818716197558994,
        0.05129630152868266,
        -0.31240627754405875,
        0.05163035401550435,
        -0.1329331979717096,
        -0.05085184700381319,
        0.11736754837972196,
        0.021689561619875498,
        0.1070411463781527,
        -0.06643076051699184,
        -0.13366610027614287,
        -0.2937910925349146,
        -0.46917419330295523,
        -0.3657374507126158,
        0.020115323187385254,
        0.36192567155157906,
        -0.2387692645630077,
        -0.03514882559858855,
        -0.14334878050548985,
        0.12219426195281166,
        0.43617568901098147,
        0.34283499354532526,
        -0.09494933288440659,
        -0.11772111878102695,
        0.09232765214708193,
        -0.1598568793779828,
        -0.17306118208494561,
        -0.30964919165204413,
        0.07783675653079547,
        -0.2466931504337759,
        0.37919835002656477,
        -0.1118086281799413,
        -0.09943078154415537,
        0.016942384061418656,
        -0.00693141976927678,
        0.1302133237457885,
        -0.4590011747139852,
        -0.06517569896837794,
        -0.04040827762384966,
        -0.3555124754843924,
        -0.1907529115791356,
        0.10857560345681032,
        0.09936284178625772,
        -0.355403553037708,
        -0.15058893658991007,
        -0.282052427340323,
        0.13051909661020064,
        -0.3498746218580061,
        -0.02124893626698798,
        0.2271048013737045,
        -0.08816442325099083,
        0.20547858771560837,
        0.3293375450726521,
        -0.2235845276791295,
        -0.2096949729206985,
        -0.17925085433838897,
        -0.1069913114540261,
        0.010706163467451029,
        -0.3285149040053255,
        0.05273649441815248,
        -0.17481596465991156,
        0.24032943610284754,
        0.5532419144317184,
        -0.0006140462362749471,
        0.524690450778638,
        0.2783031568255486,
        0.12615600646601957,
        -0.43946703945335375,
        0.056051576698327735,
        -0.16142727352198766,
        0.23391793547049516,
        0.2642786980805491,
        0.05613423382968924,
        -0.10550870228603368,
        0.604538724615611,
        0.05426192306371083,
        0.16771295872366115,
        -0.10555051347078868,
        0.11374211056846682,
        -0.18558789650464166,
        0.022005218806885107,
        -0.03637071709442301,
        -0.14003506259798948,
        -0.10184696401571296,
        -0.040261788484899176,
        -0.04115465701336122,
        -0.07522287664002296,
        -0.09155181759946573,
        -0.08997525473409886,
        0.029276085854980267,
        -0.10840386951885207,
        0.10577411102464893,
        -0.13089897445058873,
        0.24841040580550766,
        -0.18863027889407905,
        -0.2936418993614579,
        -0.5028916146166138,
        -0.07619490042064082,
        -0.1181583618379665,
        0.07416492055382776,
        -0.09774658564512499,
        -0.21607539777072196,
        0.21605414674779552,
        -0.09907985343854758,
        0.23431882670500614,
        0.015347296800563045,
        0.284911826484111,
        -0.07214134775615182,
        0.10889735958177212,
        -0.2215590034167871,
        -0.063314404518191,
        -0.06258363200736367,
        0.03398620528345913,
        0.10905433728703891,
        -0.18150375882814254,
        0.14779408044923179,
        -0.34590738822295164,
        -0.12791251455618002,
        0.005194421836117413,
        0.19715613274971175,
        0.12200827907559347,
        0.01425380789962789,
        -0.39379087893400505,
        0.37567453136995205,
        0.09544434972375049,
        0.23690187815548666,
        0.3372429394708404,
        0.03366782582376236,
        -0.220075398535404,
        0.10223608641682183,
        -0.15374534491692624,
        0.12696719704445106,
        -0.14201428596244128,
        0.08558019972578072,
        -0.15573984722303605,
        -0.5654756995937209,
        0.20582209952893957,
        -0.13002025502607878,
        0.4459175674299836,
        0.029371808629236697,
        -0.2968850187121045,
        0.06428744255851444,
        -0.23594014518579975,
        -0.37939885914053306,
        -0.2659568288612059,
        -0.04132708626202942,
        0.04731968231918586,
        0.08377379095678576,
        0.08300711533350486,
        0.1254779617947111,
        0.3012512000514098,
        -0.11753488656611209,
        0.21537697905275655,
        0.03758573110580715,
        -0.40348239319049084,
        0.24900254313632658,
        -0.2689678932024152,
        0.16303666774388034,
        -0.01948885879929189,
        0.21997785663482475,
        0.38330593655247036,
        0.20997107035350032,
        -0.4043838226107303,
        0.028046252693058514,
        -0.09705765477054189,
        -0.04729942238788228,
        -0.025939753425746916,
        0.21809511398409234,
        0.04761250134290244,
        -0.22563002681604796,
        0.4357654395170279,
        -0.0956027299001487,
        -0.11197394287459214,
        -0.2867950856756741,
        -0.08080476363223756,
        -0.21263499375232048,
        0.39579063467540393,
        0.2960475153172537,
        -0.6098423887796448,
        0.15822936661281692,
        -0.03681087481060221,
        -0.32467226455233655,
        -0.3429736806054642,
        0.1683465712349224,
        0.021888854216059437,
        0.23310654666421357,
        -0.19572070626673616,
        0.4200502799505273,
        0.10903753066248581,
        -0.035046426998930215,
        0.23171601936005334,
        0.03781215127128758,
        -0.11560436310132371,
        -0.24743997687273028,
        0.04145427221900858,
        -0.6550452345256935,
        -0.18590836336589583,
        -0.32024571001892715,
        0.20082286699504784,
        0.25963473943796667,
        -0.11171369651024488,
        -0.12228597371900012,
        0.37482038767158715,
        0.06098400409874731,
        0.36125989534607045,
        -0.01605968703798682,
        0.16191747423188657,
        0.4804486507948535,
        -0.09423897126524802,
        0.20785907146860602,
        0.17234686310468142,
        -0.4001362569612863,
        0.4651583522400945,
        -0.2171799086193451,
        0.17900984998813332,
        0.0026801687621786996,
        -0.14460016504379683,
        -0.09464758232234154,
        0.24239909046569083,
        -0.33043891879454,
        0.022142767239850637,
        -0.599669154331305,
        -0.16752557365082943,
        -0.6182887845653479,
        -0.13573845899006176,
        0.02480959570210921,
        -0.606099411014037,
        -0.06476610718688856,
        -0.17236407879161442,
        -0.14795728392120006,
        0.09684846116878212,
        0.07785199667143815,
        0.2816519711573561,
        0.27978180392707463,
        -0.11524762696076797,
        0.23311475716389066,
        0.22418577790701943,
        -0.04994037988957504,
        -0.11313238913792473,
        -0.19426638893490042,
        -0.19925433468635334,
        0.1670467147510816,
        -0.11784830935544616,
        0.054566443945697964,
        -0.20040470221855577,
        -0.24841879940834988,
        0.5124080730928167,
        0.4369332378882277,
        0.2098447701476821,
        -0.019305641542489305,
        -0.23480869562545273,
        0.3759622338600369,
        -0.32537292186290834,
        -0.012567755392965988,
        0.04196589377986816,
        -0.4099959341942246,
        -0.04438641606630107,
        0.28766070249067255,
        0.19171801924894188,
        -0.48109562484455193,
        0.2936272893140423,
        -0.3355826707148638,
        -0.04824972881169027,
        -0.04820872159818183,
        -0.25599496935881305,
        0.29518113878321006,
        0.02138026860325821,
        0.08883115223769004,
        -0.3502755911602756,
        -0.2547909376572316,
        0.42248967173705515,
        -0.010101979831288828,
        -0.060667862126247266,
        0.010986361057953083,
        -0.22554440138000229,
        -0.45367653193992064,
        -0.3126238712003392,
        -0.03626624793251365,
        0.18363484181955392,
        0.12038361874993997,
        -0.38732994576814767,
        -0.2552211493199131,
        -0.21265718571628897,
        0.41610145665363346,
        -0.2783954225035148,
        -0.16740468103479972,
        0.11585233891041861,
        0.366388206641296,
        0.16723743270441463,
        0.20162626355379107,
        0.3804738116256704,
        -0.3309567531817179,
        0.14147604248554754,
        -0.05924586028237817,
        0.22417853920151448,
        -0.15879949226322346,
        0.2665667403536551,
        0.47318756881035545,
        0.6507072088790645,
        -0.21028234919051408,
        -0.10549913912755338,
        0.1095922676147002,
        0.3789004344913586,
        -0.1823293074727737,
        0.35969352877208194,
        -0.19492086398668346,
        0.4014411105163843,
        -0.037226087131737744,
        0.2543725592921393,
        -0.5149808349824212,
        -0.5075601914799195,
        0.23997846763431868,
        -0.5411446278277342,
        0.3232019222639921,
        -0.3451596329210357,
        -0.09422904428210128,
        0.22514984067676552,
        0.013959371060074985,
        -0.006849063987470922,
        0.037737407690205275,
        -0.07163115094932677,
        0.17963555554331903,
        0.14894728058495715,
        0.12043456733525658,
        0.10460360460919078,
        -0.13538909833775933,
        -0.2412105230547437,
        -0.7377609589789146,
        0.3906786021313612,
        0.028945218039052433,
        0.10567245311961128,
        0.11822502429760812,
        -0.19817595666293292,
        0.5066293413844348,
        0.08622291737435599,
        -0.08144416260216751,
        0.025465271796893764,
        -0.10309365575172211,
        -0.6508988093651258,
        0.7998960256797117,
        0.08839276482639574,
        -0.0815963509923461,
        -0.23967409656935806,
        -0.10683890610838899,
        -0.22305750862818782,
        -0.44123866065595996,
        -0.5422500201701769,
        -0.20318642376524873,
        0.11855955576839051,
        -0.09051326397967747,
        0.15639455145388745,
        0.059401596335559886,
        -0.38905294834329834,
        -0.018970872605814957,
        0.24685290546067312,
        -0.3212034462128598,
        -0.1929836787707353,
        -0.2795350626142494,
        -0.14644126133441515,
        -0.20823190884887913,
        -0.2466457856330356,
        -0.405745904579986,
        0.2502755348055096,
        -0.31241598553638855,
        -0.04231737090637572,
        -0.08969617688844359,
        -0.12475468600119777,
        0.2432713262179017,
        -0.05831221652388319,
        0.15365818775712667,
        -0.33403838020178844,
        0.3408813661440136,
        -0.06195921846757794,
        0.5820605348545296,
        0.27288188234386795,
        0.01040704153802462,
        -0.11503819328768851,
        -0.42471801190304015,
        0.12419111888318102,
        -0.022802143289383157,
        0.28832481663496673,
        0.13882889656393343,
        0.1940347847621909,
        0.12544431729894376,
        0.025883359881815712,
        0.10499076805516913,
        -0.1886298039602431,
        0.18681990080192457,
        -0.21893682766588224,
        -0.11314312993090833,
        0.21475055226131087,
        0.09367925399919784,
        -0.03468280688339738,
        0.0162362850461583,
        -0.11153561886207725,
        -0.009876410025658706,
        0.12522437650654647,
        -0.12377481849208025,
        -0.12404261920234481,
        -0.0453858552646227,
        -0.42466147390615183,
        -0.13939945418493127,
        0.3652341115692365,
        -0.2742938428007922,
        0.0741832764139027,
        -0.006630671243450198,
        0.0181555440516238,
        -0.07443274109636698,
        0.6391916793764614,
        -0.6081077231999082,
        -0.06889214107622055,
        -0.32688616798647624,
        -0.00583477281406882,
        -0.10592233808976978,
        0.07831469244257057,
        -0.06851992930374533,
        -0.009180147091426151,
        0.18570799887708417,
        -0.09579451191402312,
        -0.23110154060160745,
        -0.22253325621556108,
        0.19333746839921945,
        -0.018668082511154344,
        -0.4783718885435493,
        0.1310464269411347,
        -0.18387123545319442,
        0.1323749339800716,
        0.03536302211167337,
        0.31209982162778505,
        0.2622017552697766,
        0.4132414884648488,
        0.2058510913470179,
        0.37951696461183176,
        0.0012194176932591588,
        0.006028017001109807,
        0.41524825999170256,
        -0.012634851408835295,
        -0.36212674742630135,
        0.02094707521975889,
        0.022949281096135195,
        -0.4186289012090202,
        0.3464241904146867,
        -0.19041526957369873,
        0.0798496285486575,
        -0.4496512160163106,
        0.08494797445966096,
        0.04509732375753009,
        0.14040918782152795,
        0.14973734376827788,
        -0.14366888086795904,
        -0.20259539791116657,
        0.07354993867283612,
        -0.008473039934897585,
        0.49323864467700984,
        0.009321380204113801,
        -0.18109350459804402,
        -0.06985672402406207,
        -0.5604081177729685,
        -0.5694025299720927,
        0.3431282456168661,
        0.417385412427899,
        0.2238100546952024,
        0.1674104071162527,
        -0.15441379987574427,
        -0.034491549152306934,
        0.17450187925454716,
        0.2931602161184657,
        0.425271507537509,
        -0.15493984303208252,
        -0.41525940222569174,
        -0.12395077726646346,
        -0.15158226626370705,
        0.20364024267264305,
        0.08849549703235485,
        0.012329020339137856,
        -0.052848325888328614,
        -0.21065670019765378,
        -0.045917221412349024,
        -0.050899407383662214,
        0.22421727188232166,
        -0.12287314147763317,
        -0.09589929650274163,
        0.2630816653858648,
        0.40621922900001106,
        -0.0055306923649666405,
        -0.2419154565405983,
        -0.02124783803177927,
        0.33135505790520675,
        0.4009563741153909,
        -0.16858317039120504,
        -0.3186299589305331,
        0.12010208533009588,
        -0.2465142584008767,
        0.2782095046249735,
        -0.021464829068461023,
        -0.02648965637185896,
        -0.2352542458007178,
        -0.45814608174698374,
        -0.15002760631529424,
        0.043140046530144104,
        -0.06423953360599169,
        0.158415842939872,
        0.21887233755272695,
        -0.34427699674920725,
        -0.13914288733419228,
        0.1853089087221835,
        0.18928818469176847,
        0.18781328542468922,
        0.40752937640404285,
        -0.06298375215085955,
        0.08563353233244202,
        -0.04385338042235561,
        0.4944740312957401,
        -0.24901223736313519,
        0.04878182247952683,
        -0.12383011306873125,
        0.4436549289161837,
        -0.5128017345935869,
        -0.024920354542400575,
        -0.30000749982155195,
        -0.2975461407147276,
        0.4601598387571502,
        -0.18995325376403038,
        -0.13330240247510652,
        0.05884677781689545,
        -2.5465081636009707e-05,
        -0.06638777739236841,
        -0.20359762686916766,
        0.14313485451317043,
        0.13669342762316533,
        -0.47954708804146395,
        0.1015658558484871,
        -0.078377985881865,
        0.023779501682628372,
        0.17366935926140978,
        -0.3299337901524277,
        -0.5137734342994763,
        -0.15677234077261015,
        -0.204837505092414,
        0.14410718240344672,
        0.3649398658659616,
        0.13009491041951257,
        -0.4362477493324668,
        -0.4178099196096243,
        0.24579295328843354,
        0.010626915781135882,
        -0.2392316806745986,
        0.09907750848119257,
        0.43668254706649784,
        0.1226704161934752,
        0.33662657867235674,
        0.09534180703793234,
        -0.09811186709108637,
        0.2410895560037736,
        0.09252767245425694,
        -0.1443729793560345,
        -0.19485483893729644,
        -0.01965937176095462,
        -0.2350029214757107,
        -0.2001041303636083,
        -0.05567838196896676,
        -0.09910175130328382,
        -0.24811394209563561,
        -0.2615036747307362,
        0.5941151832107938,
        0.2725965955314537,
        0.25529988215289495,
        -0.357760174988057,
        0.0722701741912852,
        -0.3018999042984352,
        0.12580265321529302,
        -0.07341806118583771,
        -0.040429728358211105,
        -0.6847444125693073,
        0.33698821870384654,
        0.1442828199157611,
        0.10657600215967458,
        -0.02006788106113073,
        -0.4975963328091977,
        -0.1970934753970625,
        -0.0391617127794769,
        0.1643997656720451,
        -0.12147842985154432,
        -0.43549718529202597,
        0.3370431980596624,
        -0.111804916695545,
        0.4755262129078338,
        0.14722785461417737,
        -0.05885889570547194,
        0.251779846237653,
        -0.05109407304288394,
        -0.681211279227412,
        -0.13453582245391038,
        -0.07092505424067308,
        -0.3182279317773133,
        0.00878438415578874,
        0.01231528011019864,
        -0.16930914248993917,
        -0.08716654162659707,
        -0.02542662069360176,
        0.09765116568134143,
        -0.005033573405146865,
        -0.14974346646548473,
        -0.03034301362939531,
        -0.035467089812895015,
        0.2505572221475548,
        0.0025745541436076012,
        0.20392893982910212,
        -0.14340185842031616,
        0.26562868534222855,
        0.1649065651093385,
        -0.046306430615544646,
        0.034011131621104376,
        0.0646681515282224,
        0.3503578096640509,
        -0.22096643190268186,
        0.08103286364823264,
        -0.14207702197638067,
        -0.3238436387768866,
        0.13346045809460053,
        -0.3977343905979262,
        -0.09298456541175903,
        0.2248912604772828,
        0.506718838974565,
        -0.2881742232023948,
        -0.19110531392164115,
        -0.2318642141134439,
        -0.09584667794351585,
        0.11816957356298813,
        0.011809480061267657,
        -0.10854896374724782,
        0.012181883446801272,
        -0.1058635417225003,
        -0.0943877143925348,
        -0.10158494797038559,
        -0.23000248391063027,
        -0.09978764285199777,
        -0.16293678331079536,
        0.26590202922016015,
        0.2671576770500746,
        0.06599105485852948,
        -0.16542177056588367,
        0.49021248128100736,
        0.11458059330710871,
        0.007222629091193567,
        -0.42712163034756095,
        0.04573929662049275,
        -0.2513619648886533,
        0.44032207687662916,
        -0.14168080029963606,
        0.02693796939329165,
        -0.5943485997255243,
        0.273837546051269,
        -0.17718292151835197,
        0.3413661802716075,
        0.10485386450543822,
        -0.04637536880232044,
        -0.002550466812091564,
        -0.18538837136152078,
        0.45892285865165394,
        -0.4262995632002967,
        -0.40245414453394085,
        -0.016800294001905455,
        -0.16013704229364217,
        0.05047165524873948,
        -0.07600016321696687,
        0.1422808914327711,
        -0.12872104138879653,
        0.08095723503021195,
        -0.014147721844563305,
        0.007300566177672161,
        -0.09614167272263976,
        0.22475836197401025,
        -0.36355433442802126,
        -0.32080280427019997,
        -0.02486028428891242,
        0.040842331258198854,
        0.23268450799230966,
        0.09698907562113475,
        0.200715311336747,
        0.25446206729360704,
        0.23713421186696962,
        -0.18482381722071373,
        0.00829404479540446,
        -0.3468358717173394,
        0.47460543923760823,
        0.7407995670839044,
        -0.22409488320718474,
        -0.06757983670575973,
        0.06905561807172006,
        0.2585098908594973,
        0.5122403159618024,
        -0.14178152581259756,
        0.11359069034939684,
        0.182532550978084,
        -0.0488580392201848,
        -0.23718374348605992,
        -0.09812198245282398,
        0.1566753615959159,
        0.15398182579800232,
        0.0697442446221364,
        -0.30380731003961287,
        0.016348472660568242,
        -0.04857902365320075,
        0.25723341761958335,
        0.16216782477932795,
        -0.16131783003853511,
        -0.20189488043241333,
        -0.07938527088844578,
        0.4509704983067243,
        0.2377267762264965,
        -0.28892686345722557,
        0.255746427391345,
        0.324846779610627,
        -0.37015609900940394,
        -0.2556346657808062,
        -0.022029584252945763,
        -0.31697559042724033,
        -0.3674923275085073,
        0.3005088471294285,
        0.5481316957633873,
        -0.2778142239165842,
        -0.06446203430623702,
        0.11586583074567383,
        0.16392315493313891,
        0.36239074874338706,
        0.16898871947686311,
        -0.04110616007033221,
        -0.27838133222800043,
        0.09572821748632292,
        -0.27288733617320426,
        0.1715883288913488,
        -0.22833868060134568,
        0.2409994314654362,
        0.42610872059940164,
        -0.05011608426630225,
        0.21632439117586352,
        -0.06421674332693056,
        0.09918984958923209,
        0.13524895750382507,
        0.04444164618660988,
        0.4248994373563679,
        0.029347372954069962,
        0.3163458146438102,
        0.24461424967287757,
        -0.12645951638176234,
        0.06523087503997611,
        0.5193347219838962,
        0.0976035649946986,
        -0.034242311858354656,
        0.337657205373051,
        -0.6072587616086015,
        -0.067702089383143,
        0.21770866941827996,
        0.06252455088796482,
        0.20275609704415004,
        0.008987830376048547,
        -0.26788945150683946,
        -0.08664528152985672,
        0.2217424275658233,
        0.707276204655725,
        -0.4651979404669999,
        -0.0835079984675271,
        0.17861460461017958,
        -0.053045011976072004,
        0.43444529267492615,
        0.13748317022306608,
        -0.08873485546822267,
        0.17791067213958994,
        0.13754653793203123,
        0.23409362708353643,
        -0.4244673318246248,
        0.24825228136483807,
        -0.0805165645767761,
        0.07377051053579599,
        0.02057322794395673,
        0.08423150920171245,
        -0.22717829592267183,
        0.09759740372197274,
        0.17847928930012058,
        0.45029358775275863,
        0.3275670502811268,
        -0.26834471581438984,
        0.12592143331041247,
        0.0940613358171814,
        0.28913211429155494,
        -0.013715964349938256,
        0.5912297720064015,
        0.2636910410935065,
        -0.2982527447274734
      ],
      "b": [
        -0.048040383023298106,
        1.870349909226287e-05,
        0.13874308395697998,
        -0.020362930838590327,
        0.000387075094984179,
        0.05379728298137192,
        0.020539729665073055,
        0.0,
        0.02614706564167163,
        0.04220452443239553,
        -0.13896042012247245,
        -0.05283306372565842,
        -0.0004100288142601043,
        -0.0022633327826045305,
        -0.028647995122069295,
        -0.007466066943464659,
        -0.12801034975463305,
        0.0,
        0.04760819996633689,
        -0.041893507097153504,
        0.07699973187202643,
        -0.007238745219834678,
        0.025829194893607025,
        -0.06669072798084574,
        0.187995321641687,
        -0.0263052052415114,
        -0.003345122106522144,
        -0.03171255398585169,
        -0.009762987189463612,
        0.20617688686303068,
        -0.09929504897781732,
        0.013680943179967263
      ]
    },
    {
      "W": [
        -0.3956064063315263,
        -0.13571887219715423,
        0.20416677996846477,
        0.12023377373211382,
        0.44148549239518253,
        -0.417276393205834,
        -0.09004995165282281,
        0.21688419263226066,
        -0.0020436691901851915,
        0.0162800342575084,
        0.18117566684528522,
        -0.07857793785494067,
        0.0007850442277743336,
        -0.10013954105823494,
        -0.30102527542666974,
        0.08718794424240749,
        0.16904263497953495,
        0.09812272404470276,
        0.0856339374871048,
        -0.054851871626365914,
        -0.3053404234475071,
        0.3344062574786222,
        0.0245466298781751,
        0.28671847104258025,
        -0.23588016288879693,
        0.1864348197199788,
        0.05950237725149964,
        0.033788074839879924,
        -0.33306863266765485,
        0.6062669278420871,
        -0.15409909538476163,
        -0.21844178767963196,
        -0.06341040419593186,
        0.3356794076196191,
        0.20578146790541996,
        0.27664110654295576,
        0.06944737293607625,
        -0.16341095780035242,
        -0.32759176941518364,
        0.098927961915896,
        0.3515883733799303,
        -0.06106482146810307,
        0.07809838253395794,
        0.06977080564885624,
        -0.10003116799652152,
        -0.3157996904065378,
        -0.14989853353259233,
        0.09518032597805362,
        0.4298650028389561,
        -0.4261920920318975,
        -0.5143693310335062,
        -0.09152801283860762,
        -0.027647807916282952,
        0.27201058016584545,
        -0.21251225194957904,
        -0.0028017167390164445,
        -0.4066653771446725,
        -0.1651494323483154,
        0.4167868939027758,
        -0.42414968678631426,
        -0.1195847150376034,
        0.4486021817998602,
        -0.03596589298222939,
        -0.2133833493040814
      ],
      "b": [
        0.3572312032115741,
        -0.3572312032115739
      ]
    }
  ]
}