{
  "version": 1,
  "stateSize": 6,
  "actionSize": 2,
  "hiddenSizes": [
    32,
    32
  ],
  "trainedAt": 1777127259810,
  "totalSteps": 345100,
  "layers": [
    {
      "W": [
        -0.5387804508209229,
        0.05268976464867592,
        -0.2577723562717438,
        0.2639639675617218,
        -0.8295809030532837,
        -1.077368140220642,
        -0.7774403691291809,
        -1.425563931465149,
        1.8982603549957275,
        0.22684651613235474,
        -0.46715012192726135,
        -1.4794752597808838,
        -0.6734843254089355,
        -0.6544599533081055,
        -0.1638273447751999,
        0.40639135241508484,
        -0.7618370652198792,
        0.32016056776046753,
        -0.017570586875081062,
        -0.26876625418663025,
        -1.1993857622146606,
        -0.31223049759864807,
        -0.7082096338272095,
        -3.743093490600586,
        -1.1754655838012695,
        -0.35935187339782715,
        -0.3751434087753296,
        -0.544964611530304,
        -0.36366358399391174,
        -0.9711925983428955,
        -0.4739393889904022,
        0.2853211462497711,
        -0.8915748000144958,
        0.0006997190066613257,
        -3.6389882564544678,
        -0.9214317798614502,
        -1.1124597787857056,
        0.18079467117786407,
        -1.3755977153778076,
        1.0628259181976318,
        -2.231144666671753,
        -0.4523184597492218,
        -0.26038116216659546,
        -2.9987547397613525,
        -4.84354305267334,
        0.4980711340904236,
        -4.221230506896973,
        -2.076223373413086,
        -4.598801136016846,
        -0.7736685872077942,
        -2.466277599334717,
        -0.46166783571243286,
        -1.9295127391815186,
        -1.3921955823898315,
        0.7086169719696045,
        -0.5270254611968994,
        -6.174095153808594,
        0.15840335190296173,
        -4.542107582092285,
        -1.3000234365463257,
        -4.36688756942749,
        -5.1117939949035645,
        -1.05333411693573,
        -0.4393450617790222,
        -0.21295952796936035,
        2.706563711166382,
        -2.555023670196533,
        -0.4824977517127991,
        -2.9605512619018555,
        -0.9053860902786255,
        0.02257772535085678,
        2.120274782180786,
        -3.078876495361328,
        -0.02120582014322281,
        -0.30313488841056824,
        -0.16713011264801025,
        -1.4243968725204468,
        -0.7427268624305725,
        4.215272903442383,
        -1.7059675455093384,
        0.5975536704063416,
        -19.410396575927734,
        -3.3001255989074707,
        -0.8932377696037292,
        0.019253380596637726,
        -1.1470779180526733,
        -0.9513062238693237,
        -2.4767236709594727,
        -1.9802138805389404,
        -0.17941033840179443,
        -0.6263407468795776,
        -0.3446791470050812,
        -2.5129177570343018,
        -0.27426639199256897,
        -0.09280819445848465,
        -2.7842252254486084,
        -0.8449570536613464,
        4.474487781524658,
        -1.2545359134674072,
        -2.1523168087005615,
        0.43847036361694336,
        -0.10113797336816788,
        -0.15095216035842896,
        5.870050430297852,
        3.3205018043518066,
        -0.794111967086792,
        0.028663745149970055,
        0.17172938585281372,
        -4.023519992828369,
        2.3452298641204834,
        -16.47660255432129,
        -12.2433443069458,
        1.0040233135223389,
        -1.0716032981872559,
        -0.886544942855835,
        0.2234233319759369,
        -3.1882450580596924,
        -3.3010990619659424,
        -14.959672927856445,
        -3.6420702934265137,
        -6.9103851318359375,
        -1.2711181640625,
        -2.0811686515808105,
        -0.27664902806282043,
        -4.633494853973389,
        -1.7101504802703857,
        -0.44586870074272156,
        3.5288162231445312,
        3.811962842941284,
        -13.592148780822754,
        -3.3964550495147705,
        -2.880720376968384,
        -18.669673919677734,
        -11.860773086547852,
        -1.1832327842712402,
        13.155845642089844,
        -26.496030807495117,
        -4.284584045410156,
        2.468480348587036,
        -1.6301349401474,
        -14.080636024475098,
        -10.056259155273438,
        -63.48220443725586,
        9.282222747802734,
        -22.71298599243164,
        52.65271759033203,
        -3.630472421646118,
        -0.9126338362693787,
        4.10457706451416,
        -7.940405368804932,
        -6.0790252685546875,
        -5.464130878448486,
        -19.168806076049805,
        31.18757438659668,
        -6.611176490783691,
        -0.9258192181587219,
        -3.3190882205963135,
        -33.682987213134766,
        -0.6420139074325562,
        0.507024347782135,
        10.219843864440918,
        241.66607666015625,
        -16.924453735351562,
        -7.384368419647217,
        -29.03628921508789,
        1.7876968383789062,
        -0.680299699306488,
        17.61868667602539,
        -14.853801727294922,
        -15.136488914489746,
        28.23074722290039,
        -1.028823971748352,
        22.986562728881836,
        2.9915030002593994,
        -14.9734468460083,
        85.21944427490234,
        -40.935855865478516,
        51.85224914550781,
        -1.8903449773788452,
        -0.5505677461624146,
        -8.63896369934082,
        -12.921282768249512,
        45.37956237792969,
        12.43100357055664,
        7.628762722015381,
        -143.982666015625,
        -0.42156335711479187,
        -1.1394360065460205,
        5.295043468475342,
        -15.509875297546387,
        1.8022371530532837,
        -2.2777912616729736
      ],
      "b": [
        15.244796752929688,
        13.273772239685059,
        2.9407236576080322,
        -9.916386604309082,
        8.356104850769043,
        18.4204044342041,
        -0.03186381608247757,
        15.72169017791748,
        12.584731101989746,
        9.15339183807373,
        22.470264434814453,
        3.6491293907165527,
        6.326588153839111,
        6.130910396575928,
        -20.200313568115234,
        3.876743793487549,
        21.719335556030273,
        -36.682865142822266,
        2.6122350692749023,
        -0.5429322719573975,
        15.805355072021484,
        7.937174320220947,
        13.454498291015625,
        -0.22299131751060486,
        9.749899864196777,
        -33.707149505615234,
        0.4477108120918274,
        -0.03126688674092293,
        3.2365920543670654,
        6.740626811981201,
        -0.21059204638004303,
        9.714998245239258
      ]
    },
    {
      "W": [
        1.9649028778076172,
        -2.69128155708313,
        0.9194578528404236,
        -1.7218317985534668,
        -5.664954662322998,
        -0.47884732484817505,
        -3.530754327774048,
        1.5224448442459106,
        0.6370887756347656,
        0.15172167122364044,
        0.14221100509166718,
        0.026317253708839417,
        0.9406497478485107,
        0.0972285270690918,
        0.01714269258081913,
        0.13202503323554993,
        -5.613981246948242,
        0.9181730151176453,
        -0.6379418969154358,
        -2.206550121307373,
        0.5079463124275208,
        0.2197204977273941,
        0.06641799211502075,
        -2.8853917121887207,
        -3.7471649646759033,
        -3.1215357780456543,
        0.1930028796195984,
        1.977623701095581,
        -0.8161182403564453,
        0.19116778671741486,
        -2.2079830169677734,
        -0.38495704531669617,
        -3.6628777980804443,
        -2.1582181453704834,
        -0.7578952312469482,
        -0.8363083600997925,
        -4.434148788452148,
        -2.08263897895813,
        -0.10827433317899704,
        -3.154883623123169,
        -2.527345657348633,
        -1.6887873411178589,
        -2.1294431686401367,
        -0.4522022604942322,
        -1.656364917755127,
        -0.47781434655189514,
        -1.3020656108856201,
        -1.223652958869934,
        -1.4716746807098389,
        -2.8122060298919678,
        -1.0926704406738281,
        -1.4433690309524536,
        -2.7437944412231445,
        -3.140883207321167,
        -1.8570653200149536,
        -0.9494207501411438,
        -1.3673901557922363,
        -1.779485821723938,
        -0.7467171549797058,
        0.0078464075922966,
        -2.549940824508667,
        -1.7940471172332764,
        -0.8630821108818054,
        -1.0965015888214111,
        -0.4858500063419342,
        -0.055718712508678436,
        -0.3678725063800812,
        -0.9678207039833069,
        -3.0305323600769043,
        0.20638036727905273,
        -4.43708610534668,
        -8.195967674255371,
        -0.16112184524536133,
        0.3070458769798279,
        -0.21420660614967346,
        -0.059001319110393524,
        -2.845116138458252,
        0.15411320328712463,
        -0.06379787623882294,
        0.09585749357938766,
        -1.4082393646240234,
        1.7462096214294434,
        -0.18518932163715363,
        -0.49973323941230774,
        -0.033461928367614746,
        -0.36164405941963196,
        -0.2846958637237549,
        -0.1892153024673462,
        -1.8710187673568726,
        -1.5102640390396118,
        -0.2698308527469635,
        -0.23734520375728607,
        -0.7023875713348389,
        0.0928172618150711,
        -1.5864689350128174,
        -1.803519606590271,
        -0.012044846080243587,
        -0.048775121569633484,
        -1.0407525300979614,
        -0.19914549589157104,
        -0.023481113836169243,
        -0.15902473032474518,
        -0.5424312949180603,
        -0.3889669179916382,
        -0.004946038592606783,
        -0.12436561286449432,
        -0.8067759275436401,
        -0.21936143934726715,
        0.01978079043328762,
        0.00856868177652359,
        -0.13169905543327332,
        0.004626932553946972,
        0.22814910113811493,
        -0.045574039220809937,
        -0.4162244498729706,
        -0.9463082551956177,
        -0.29814228415489197,
        -1.2257384061813354,
        -0.53309565782547,
        -0.19761304557323456,
        -0.643834114074707,
        -0.6452058553695679,
        -0.2992749810218811,
        0.1512223780155182,
        -0.12742097675800323,
        -0.671381950378418,
        -0.24602782726287842,
        -0.6300441026687622,
        -1.403117299079895,
        -1.0111972093582153,
        -0.7189443707466125,
        -2.08986234664917,
        0.9255994558334351,
        -0.9766941666603088,
        -0.14188005030155182,
        1.077567458152771,
        -0.9212391972541809,
        -1.0850239992141724,
        -0.118636853992939,
        -0.5204272270202637,
        -0.4078327417373657,
        -0.9747955799102783,
        -0.6780622601509094,
        -0.6767677664756775,
        -1.9485799074172974,
        0.31244054436683655,
        -0.7499004006385803,
        -0.4920375645160675,
        0.32378122210502625,
        -0.6580259799957275,
        -0.48062145709991455,
        -1.097588062286377,
        1.571854591369629,
        1.2721847295761108,
        -0.08758149296045303,
        -0.887560248374939,
        -0.92783123254776,
        0.6414392590522766,
        -3.0876476764678955,
        -0.225983664393425,
        -0.6825351715087891,
        0.052055153995752335,
        -0.8563784956932068,
        -1.854107141494751,
        -8.822818756103516,
        0.10202609747648239,
        -0.9737071990966797,
        -8.01839828491211,
        -0.47652900218963623,
        -0.27722692489624023,
        -0.19997549057006836,
        -1.0367587804794312,
        -0.5648567080497742,
        -0.21676893532276154,
        0.13552512228488922,
        -0.09136869758367538,
        -2.934391498565674,
        -4.201831817626953,
        -0.1577288955450058,
        0.039451975375413895,
        -2.9810452461242676,
        -4.056666374206543,
        -0.6106367707252502,
        1.8307141065597534,
        -0.1411149799823761,
        -6.68513822555542,
        -1.385758876800537,
        1.0022697448730469,
        -1.3964416980743408,
        -1.4501625299453735,
        -1.0805535316467285,
        -0.12328342348337173,
        -0.24595806002616882,
        -0.7615878582000732,
        0.0052147009409964085,
        0.044393543154001236,
        -0.7497413158416748,
        -0.1535436511039734,
        -0.23908647894859314,
        -0.44911643862724304,
        0.9812142848968506,
        0.48159536719322205,
        0.13695940375328064,
        -0.07073298841714859,
        -0.09488489478826523,
        0.09720531851053238,
        -0.10335592180490494,
        -0.11880210787057877,
        0.17481274902820587,
        -0.07271483540534973,
        -0.21219290792942047,
        0.09465743601322174,
        0.1677398830652237,
        -0.36451178789138794,
        0.19658027589321136,
        0.18902088701725006,
        -0.1412113755941391,
        0.22826479375362396,
        1.0919857025146484,
        -0.7679035663604736,
        -1.0257006883621216,
        -0.02039496600627899,
        -0.35398390889167786,
        0.29951727390289307,
        -0.346086323261261,
        -0.3579821288585663,
        -0.6715309619903564,
        -2.0436744689941406,
        0.25229671597480774,
        -0.14947126805782318,
        -0.031131446361541748,
        -1.9806510210037231,
        -0.8962638974189758,
        -0.20392325520515442,
        -0.3290095329284668,
        -0.0803905799984932,
        -0.6072891354560852,
        -0.08186473697423935,
        -0.057446081191301346,
        -1.0089154243469238,
        0.3104659914970398,
        -1.4749287366867065,
        -0.6538664698600769,
        -2.1286890506744385,
        -1.1818667650222778,
        -0.07683362066745758,
        -0.17210815846920013,
        -0.7936063408851624,
        -0.49944743514060974,
        -1.57349693775177,
        -1.303315281867981,
        -0.12013400346040726,
        -2.942620277404785,
        -0.4252460300922394,
        -1.264757752418518,
        -0.10700083523988724,
        0.7077862620353699,
        -0.12553051114082336,
        -1.7285754680633545,
        -1.3578258752822876,
        0.5983262658119202,
        -1.272376537322998,
        -0.9961322546005249,
        0.12207397073507309,
        0.022938301786780357,
        0.5289406180381775,
        0.014061594381928444,
        0.2169175148010254,
        0.18251964449882507,
        -0.17447777092456818,
        0.12616153061389923,
        -0.3803529143333435,
        -7.800175189971924,
        0.9831351637840271,
        0.3374064564704895,
        -0.7564477920532227,
        -5.12017297744751,
        -0.4650174081325531,
        -0.4836549758911133,
        -3.4039559364318848,
        -0.16556815803050995,
        1.4028555154800415,
        -0.9979757070541382,
        -0.1337038278579712,
        -0.8618751168251038,
        -1.071546196937561,
        -1.5627700090408325,
        -0.3995019197463989,
        -1.5476791858673096,
        -0.47497308254241943,
        0.30183953046798706,
        0.3367793560028076,
        -2.8948395252227783,
        -1.111262321472168,
        0.2004551738500595,
        -3.0747880935668945,
        -0.1571492850780487,
        0.8228320479393005,
        -0.4711695909500122,
        -0.8463557958602905,
        -0.8427871465682983,
        -0.6872072219848633,
        -1.1412708759307861,
        0.1146685928106308,
        1.323962688446045,
        1.6792140007019043,
        0.09675098210573196,
        -3.41914963722229,
        0.8132209181785583,
        -0.6986597180366516,
        -0.3875539004802704,
        0.3414652645587921,
        -0.7187355756759644,
        -2.3971974849700928,
        0.19405069947242737,
        -2.170163154602051,
        1.267704963684082,
        0.29414084553718567,
        2.2586424350738525,
        0.2646758556365967,
        -0.9809293746948242,
        -1.507405161857605,
        -2.2426249980926514,
        -0.33496037125587463,
        3.7706916332244873,
        -1.0660163164138794,
        -1.039177417755127,
        -0.31738829612731934,
        -0.44218939542770386,
        0.35091471672058105,
        -0.08271210640668869,
        -0.23892000317573547,
        -2.4201674461364746,
        -0.4530710279941559,
        -0.0652654692530632,
        -0.40342605113983154,
        0.6134793162345886,
        -0.5811070799827576,
        -0.8182081580162048,
        -0.33211177587509155,
        -1.152139663696289,
        0.23854012787342072,
        -0.6511497497558594,
        -2.4800374507904053,
        -0.6899834275245667,
        -0.0320127010345459,
        -9.075772285461426,
        -2.214172601699829,
        0.5810911655426025,
        -1.6357117891311646,
        -1.0807950496673584,
        -0.040783751755952835,
        -0.26149651408195496,
        0.20569026470184326,
        -0.08544617146253586,
        0.012181657366454601,
        -4.857283115386963,
        0.06526757031679153,
        1.4394772052764893,
        -0.5221103429794312,
        0.18907243013381958,
        -0.30116209387779236,
        0.34326982498168945,
        0.08851222693920135,
        -0.2661609351634979,
        -0.1583937555551529,
        0.24770839512348175,
        -0.21692968904972076,
        -0.11481674015522003,
        0.27840763330459595,
        0.1320459395647049,
        -0.31111010909080505,
        -0.4452642500400543,
        -0.16468730568885803,
        0.21668191254138947,
        -0.05779973044991493,
        1.4462320804595947,
        -0.6934853792190552,
        -0.4792204797267914,
        1.4977312088012695,
        -0.03399922326207161,
        0.19850890338420868,
        -0.5387169718742371,
        -0.02504979632794857,
        1.1218618154525757,
        -1.8624892234802246,
        -1.1244760751724243,
        -0.8350833654403687,
        -1.5980665683746338,
        -0.22028546035289764,
        -2.548398733139038,
        0.6496082544326782,
        -0.9966712594032288,
        -1.6317193508148193,
        -0.2509194314479828,
        -0.21539390087127686,
        -2.332226514816284,
        -0.1545943170785904,
        -0.2232380360364914,
        -0.0071211508475244045,
        -0.052535027265548706,
        2.5220558643341064,
        -0.058859772980213165,
        -0.5171112418174744,
        -1.4509031772613525,
        -0.29187706112861633,
        -2.5958428382873535,
        1.0708287954330444,
        1.5056322813034058,
        -0.0559544712305069,
        1.0727976560592651,
        0.6702380776405334,
        -1.2413395643234253,
        -1.6376322507858276,
        -2.2191784381866455,
        -1.6094385385513306,
        -0.45782163739204407,
        -1.4919967651367188,
        -0.39332115650177,
        -0.7744201421737671,
        -0.9896590709686279,
        0.4062192142009735,
        -0.8244553804397583,
        1.1054754257202148,
        0.050527893006801605,
        -0.48346906900405884,
        -0.5855644941329956,
        -0.15973851084709167,
        -3.6547534465789795,
        -0.036471255123615265,
        -1.2076977491378784,
        0.3214332163333893,
        0.6917673945426941,
        0.05834595859050751,
        -2.243067979812622,
        1.4238338470458984,
        -2.242852210998535,
        -1.1734280586242676,
        0.18562358617782593,
        0.6923643350601196,
        -1.5545084476470947,
        -0.9208883047103882,
        -1.6486766338348389,
        0.25394406914711,
        -0.39811569452285767,
        -0.5580074191093445,
        -0.9146918058395386,
        -0.9765626192092896,
        -0.9795541763305664,
        -1.1312319040298462,
        -0.5203995704650879,
        -0.11798804253339767,
        -0.6920229196548462,
        -0.39779290556907654,
        -0.3351052701473236,
        -0.9974052309989929,
        -0.5176647901535034,
        -0.9272782206535339,
        -0.5658451914787292,
        -0.8084893226623535,
        -1.382327675819397,
        -0.5675919651985168,
        -0.6137155294418335,
        -0.13950054347515106,
        -1.7523800134658813,
        -0.541954755783081,
        -0.33038556575775146,
        -4.134356498718262,
        -0.4523490369319916,
        -0.14559952914714813,
        -0.6655614376068115,
        -0.6120871305465698,
        0.5626770853996277,
        -0.13369427621364594,
        -0.1095365509390831,
        -0.21894364058971405,
        -1.5422619581222534,
        -0.6275222301483154,
        -0.0947338193655014,
        -1.9023395776748657,
        -1.75370454788208,
        -0.12196165323257446,
        -1.5298962593078613,
        0.44282975792884827,
        -1.7188520431518555,
        -0.5948615670204163,
        0.5985019207000732,
        -0.48622995615005493,
        -1.1214238405227661,
        -0.4150390923023224,
        -0.3994590640068054,
        -0.39176321029663086,
        0.394765168428421,
        -0.8925549983978271,
        0.10520659387111664,
        -0.19496309757232666,
        -7.269609451293945,
        -0.17160390317440033,
        -0.7771857380867004,
        0.22465981543064117,
        0.552346408367157,
        -0.7142956256866455,
        -0.9691893458366394,
        -0.376008540391922,
        0.3541536331176758,
        2.552345037460327,
        -5.833786487579346,
        -0.16792918741703033,
        -1.9566559791564941,
        0.13705548644065857,
        -0.031231844797730446,
        0.1245809942483902,
        -0.7012627720832825,
        0.9815060496330261,
        -0.5757238268852234,
        -0.49811166524887085,
        -1.415220022201538,
        -0.13396698236465454,
        -1.6721402406692505,
        -2.836343765258789,
        -1.7007673978805542,
        -0.25220441818237305,
        -0.22508978843688965,
        -0.5473199486732483,
        -2.847625732421875,
        0.11795510351657867,
        -0.4005172550678253,
        -0.39216840267181396,
        -1.3812319040298462,
        -9.494897842407227,
        -0.5218068361282349,
        -1.4909679889678955,
        -0.6395223140716553,
        -0.5395418405532837,
        -1.26297128200531,
        0.9592224955558777,
        0.9460877180099487,
        -3.5479276180267334,
        -0.7177119255065918,
        0.27247029542922974,
        -4.052350044250488,
        -1.2944295406341553,
        -3.6867833137512207,
        -0.6470493674278259,
        -1.8706190586090088,
        -1.7532333135604858,
        -1.7349653244018555,
        -1.7662246227264404,
        -0.03629442676901817,
        -1.328709602355957,
        -0.1007198691368103,
        -0.9418401718139648,
        -1.114508867263794,
        -1.5192674398422241,
        -0.1107422336935997,
        -0.5710482001304626,
        -1.0943052768707275,
        -0.7724478244781494,
        -1.629700779914856,
        -0.6164364814758301,
        -0.48890960216522217,
        -8.013985633850098,
        -0.3906586766242981,
        -0.6632744669914246,
        -1.9929008483886719,
        -4.587881088256836,
        -1.6794753074645996,
        -0.8819664120674133,
        -9.28139591217041,
        -8.79711627960205,
        -0.2677839994430542,
        -0.031360819935798645,
        -0.4700823724269867,
        -1.2376272678375244,
        -5.38147497177124,
        -1.8784271478652954,
        -0.13093018531799316,
        -0.24052859842777252,
        0.021059183403849602,
        -0.15704961121082306,
        -3.618743658065796,
        -0.13351528346538544,
        -0.06946071982383728,
        -0.8274779915809631,
        -0.2823995351791382,
        -0.442543089389801,
        0.12096264958381653,
        0.12883928418159485,
        0.3554523289203644,
        -0.17610323429107666,
        0.34807348251342773,
        -0.34780824184417725,
        0.276936411857605,
        -0.3161469101905823,
        -0.10700322687625885,
        0.5006788969039917,
        -1.1260786056518555,
        -0.06808280944824219,
        0.09424915164709091,
        0.7059706449508667,
        -0.9440792202949524,
        -2.3174264430999756,
        0.09127670526504517,
        -1.3966840505599976,
        0.09056409448385239,
        0.025084547698497772,
        1.135541319847107,
        0.5315060615539551,
        0.05977809056639671,
        0.18470236659049988,
        -0.3281150460243225,
        0.2846052348613739,
        -0.24919822812080383,
        -0.14948278665542603,
        0.18626458942890167,
        0.08597071468830109,
        0.17283064126968384,
        0.07884670794010162,
        -0.025505157187581062,
        -0.2445971965789795,
        0.1543126106262207,
        -0.24478355050086975,
        0.34576132893562317,
        -0.2654740512371063,
        0.0075589921325445175,
        -0.41605818271636963,
        0.29957035183906555,
        -0.10247476398944855,
        0.3352224826812744,
        -0.008122248575091362,
        -0.2075338363647461,
        -0.4689362049102783,
        0.17514383792877197,
        0.10130253434181213,
        0.05455423891544342,
        0.4179176092147827,
        0.43766456842422485,
        -0.05467677861452103,
        -0.15497039258480072,
        0.23145920038223267,
        0.13837149739265442,
        -0.05242649093270302,
        -0.13496072590351105,
        -1.9090304374694824,
        -2.903865337371826,
        0.034970857203006744,
        -3.1040852069854736,
        0.23036839067935944,
        0.012557056732475758,
        -0.1748090386390686,
        -0.4561588764190674,
        -0.10266782343387604,
        -0.06028261408209801,
        -0.3484553396701813,
        -0.21300241351127625,
        -0.021544504910707474,
        -1.8540204763412476,
        0.12028180062770844,
        -0.05969427898526192,
        -0.06964073330163956,
        -0.02647571638226509,
        -0.37280941009521484,
        0.056721754372119904,
        0.39526745676994324,
        -2.318716049194336,
        0.8903821706771851,
        0.45831191539764404,
        0.8546515703201294,
        -0.36199861764907837,
        0.024867739528417587,
        -2.0460939407348633,
        -0.1704784482717514,
        -0.7484937906265259,
        -0.7435370683670044,
        -0.304084837436676,
        0.24917811155319214,
        -2.4692211151123047,
        -0.1799774020910263,
        -0.25377264618873596,
        -1.7395217418670654,
        1.4113891124725342,
        -0.7602968811988831,
        -0.2861863672733307,
        -0.5084382891654968,
        -4.080716609954834,
        0.03568795695900917,
        0.3618294894695282,
        -0.08488387614488602,
        0.39180809259414673,
        -3.188962459564209,
        -1.7334139347076416,
        0.7335184216499329,
        1.1973806619644165,
        -0.8289610743522644,
        -0.15248030424118042,
        0.1167498305439949,
        -1.849526286125183,
        -2.2544662952423096,
        -2.8984134197235107,
        -1.512899398803711,
        0.5394187569618225,
        0.32607942819595337,
        0.8630545139312744,
        -0.5116561651229858,
        -0.4725014269351959,
        -0.29744699597358704,
        -1.2242357730865479,
        -0.9833789467811584,
        0.5397451519966125,
        -0.8718880414962769,
        -1.1022517681121826,
        -2.2814857959747314,
        -0.9136722683906555,
        -0.3832179307937622,
        -1.1490761041641235,
        -0.08850577473640442,
        0.012099034152925014,
        -0.1330837458372116,
        -0.7771342992782593,
        -1.2056907415390015,
        -2.2737061977386475,
        -0.8246051073074341,
        -0.713390588760376,
        -0.6751260757446289,
        -0.29366356134414673,
        -0.18281129002571106,
        -0.17633111774921417,
        -1.2238849401474,
        0.4007323086261749,
        0.32242485880851746,
        -0.24826064705848694,
        -0.14988566935062408,
        -2.3024652004241943,
        -0.906282901763916,
        0.17022249102592468,
        -0.4889938533306122,
        -1.1798617839813232,
        -0.856854259967804,
        0.2783254384994507,
        -0.533882737159729,
        -1.498594880104065,
        0.2249428778886795,
        -0.3095625340938568,
        -0.8574103713035583,
        -0.9985146522521973,
        -0.6492000818252563,
        -0.05313538759946823,
        -0.16040687263011932,
        3.1310577392578125,
        -0.19574232399463654,
        0.48951923847198486,
        -0.12875956296920776,
        -0.565079391002655,
        -0.18378713726997375,
        -1.467991828918457,
        0.5273622274398804,
        -0.6824169754981995,
        -0.44924259185791016,
        0.8091005086898804,
        0.10090212523937225,
        -0.6674076914787292,
        1.7165875434875488,
        -0.9693931341171265,
        -1.7457233667373657,
        -0.09187120944261551,
        -0.06525588780641556,
        -0.34045717120170593,
        -0.03719030320644379,
        -1.3022205829620361,
        -3.298530101776123,
        -0.6981596946716309,
        -2.1754493713378906,
        -2.1535489559173584,
        1.089707612991333,
        -1.2808959484100342,
        0.024706173688173294,
        -1.3658082485198975,
        -0.12967424094676971,
        0.5365788340568542,
        0.22191457450389862,
        -2.8834595680236816,
        0.0880512222647667,
        -0.7200711965560913,
        -0.10724843293428421,
        -3.956066846847534,
        0.5309358239173889,
        0.7682619094848633,
        -1.0068340301513672,
        -0.7904451489448547,
        -0.42585238814353943,
        -0.1693243384361267,
        -0.22447127103805542,
        4.904853820800781,
        -2.8435049057006836,
        -0.33507803082466125,
        -0.0036800235975533724,
        0.2960333228111267,
        0.23354895412921906,
        -0.9984574317932129,
        -0.543257474899292,
        -1.5813113451004028,
        -0.6001114845275879,
        0.1260453164577484,
        -0.14449818432331085,
        -0.7195088267326355,
        -0.16094699501991272,
        2.763152837753296,
        -0.08163303136825562,
        -0.09916350245475769,
        -0.08816375583410263,
        -0.40673160552978516,
        -0.36775919795036316,
        -0.29770445823669434,
        -0.49710890650749207,
        -0.7118955254554749,
        0.0042837634682655334,
        -5.525420665740967,
        -0.3407449424266815,
        0.00030649013933725655,
        -0.24520926177501678,
        -0.2985548973083496,
        -1.241736650466919,
        -0.6015399098396301,
        -0.33309364318847656,
        -5.628026962280273,
        -1.01996648311615,
        -0.16860152781009674,
        -0.2504933774471283,
        0.008041802793741226,
        0.016578787937760353,
        -6.3644890785217285,
        -0.02307998202741146,
        0.4710417687892914,
        -0.8050855994224548,
        -1.59218430519104,
        -2.4302878379821777,
        -2.1147637367248535,
        -2.0257229804992676,
        -0.6117693781852722,
        -1.4365465641021729,
        -0.11485259979963303,
        1.0427594184875488,
        0.2555643916130066,
        -2.436504364013672,
        0.0979466661810875,
        -0.3296303153038025,
        0.19152404367923737,
        -0.18768849968910217,
        -1.9909950494766235,
        -0.6218025088310242,
        1.1936097145080566,
        -1.677330493927002,
        -2.9628076553344727,
        -1.615434169769287,
        -0.7607470154762268,
        0.1145210936665535,
        -1.9994133710861206,
        0.8808096051216125,
        -1.8157880306243896,
        -0.1471439152956009,
        -1.2571665048599243,
        -0.3347678780555725,
        -0.13972485065460205,
        0.3414260447025299,
        0.09587948024272919,
        -0.7324649095535278,
        -0.7520263195037842,
        0.43704360723495483,
        -0.43122437596321106,
        -0.07953013479709625,
        -0.054953571408987045,
        0.09403111785650253,
        0.4624657928943634,
        0.41706985235214233,
        -0.4173606336116791,
        -0.1631269007921219,
        0.31847143173217773,
        0.11807447671890259,
        0.06195961311459541,
        -0.11613385379314423,
        -0.5728960037231445,
        0.026444142684340477,
        -0.4464232325553894,
        -0.34613680839538574,
        -0.626279354095459,
        0.22537262737751007,
        0.2833259403705597,
        0.32997557520866394,
        -0.9483174085617065,
        -0.6354712843894958,
        0.21352948248386383,
        -0.38400042057037354,
        0.03725818917155266,
        0.07011006027460098,
        0.26900094747543335,
        0.05990250036120415,
        -0.07342977821826935,
        -3.788090944290161,
        0.6078541278839111,
        0.004539113957434893,
        -6.452490329742432,
        -1.1682024002075195,
        -3.2698206901550293,
        -1.884162425994873,
        -2.2280595302581787,
        -0.7823860049247742,
        -0.24350889027118683,
        0.2650493085384369,
        -0.9603258371353149,
        -0.077597975730896,
        0.4508170187473297,
        -0.056320443749427795,
        -0.47860097885131836,
        -0.7777944803237915,
        -0.8310611248016357,
        -0.7493239641189575,
        0.7117055058479309,
        -0.4783112108707428,
        -0.4766680598258972,
        -0.05705706402659416,
        -0.8164288997650146,
        4.2615227699279785,
        -0.33344894647598267,
        -0.7080206871032715,
        0.26476678252220154,
        -2.57989239692688,
        -1.485374093055725,
        -0.6918321251869202,
        -0.9376044273376465,
        0.1792483925819397,
        -0.5915672183036804,
        -4.337458610534668,
        -2.496312379837036,
        -1.2999444007873535,
        -0.5212733745574951,
        -2.3269500732421875,
        -1.7035081386566162,
        -1.0718399286270142,
        -0.9561147093772888,
        -0.3399020731449127,
        -3.540924310684204,
        -0.42150014638900757,
        -0.6926149725914001,
        -0.19829867780208588,
        -2.7554938793182373,
        1.50421142578125,
        -0.5935817956924438,
        0.3572542071342468,
        -4.966646194458008,
        -1.1022067070007324,
        0.11394450813531876,
        -0.662262499332428,
        -1.9856054782867432,
        0.36982715129852295,
        -2.178701400756836,
        0.7311643958091736,
        -2.378389358520508,
        -0.9057209491729736,
        -0.04708751663565636,
        -2.045201301574707,
        -0.152236670255661,
        -0.17371448874473572,
        0.22181129455566406,
        0.8165303468704224,
        0.007532339543104172,
        0.49853187799453735,
        0.12431883811950684,
        0.026317311450839043,
        0.37789690494537354,
        0.4969775378704071,
        -0.10183034837245941,
        -0.12501570582389832,
        0.09783894568681717,
        -0.39025449752807617,
        0.2720434069633484,
        -0.23795157670974731,
        -0.3194214403629303,
        -0.19863906502723694,
        -0.207447811961174,
        -0.6801835298538208,
        0.16367092728614807,
        0.12214665114879608,
        0.21987022459506989,
        -0.16722437739372253,
        -0.16098611056804657,
        0.38936805725097656,
        0.1771751195192337,
        -0.37318354845046997,
        -0.07420478016138077,
        -0.08011309802532196,
        1.7874730825424194,
        0.28233158588409424,
        -0.5854955315589905,
        0.4581662118434906,
        -0.6960852146148682,
        -2.349889039993286,
        -3.1435699462890625,
        -1.6111081838607788,
        -1.1598774194717407,
        0.8793507218360901,
        -0.35269662737846375,
        -0.3818501830101013,
        0.3077152669429779,
        -0.49544674158096313,
        -0.5208516716957092,
        -0.6765551567077637,
        -0.3637641370296478,
        -0.5519937872886658,
        1.0268282890319824,
        0.29738515615463257,
        0.1359686553478241,
        -0.17424848675727844,
        -0.5111898183822632,
        -1.1049915552139282,
        -0.8371529579162598,
        0.21014945209026337,
        1.0866023302078247,
        2.578519821166992,
        -2.0247416496276855,
        0.32292476296424866,
        -1.5665847063064575,
        -1.1075725555419922,
        -0.0966675654053688,
        -1.3346658945083618
      ],
      "b": [
        -1.0755645036697388,
        -0.0011933936038985848,
        13.821651458740234,
        7.909116268157959,
        1.321566104888916,
        -11.425634384155273,
        -7.21196985244751,
        -3.2134904861450195,
        -2.275564193725586,
        -1.0421637296676636,
        -0.6516799926757812,
        -1.4353078603744507,
        -0.3618727922439575,
        -0.9274958372116089,
        -1.1247892379760742,
        -0.86332768201828,
        39.47827911376953,
        0.14334414899349213,
        -1.7598844766616821,
        -0.19613848626613617,
        -0.0008398507488891482,
        1.6239831447601318,
        -2.926647186279297,
        -3.692308187484741,
        22.54804801940918,
        -9.374845504760742,
        16.69647789001465,
        44.91339111328125,
        -3.482285976409912,
        -3.18680477142334,
        20.294635772705078,
        -1.7429355382919312
      ]
    },
    {
      "W": [
        0.052326563745737076,
        -0.06241409853100777,
        0.002803692128509283,
        -0.0004719459975603968,
        -0.19902454316616058,
        -0.039668574929237366,
        -0.021057792007923126,
        0.02282552607357502,
        0.19967776536941528,
        0.09143410623073578,
        -0.04760480672121048,
        -0.015567723661661148,
        -0.11563187092542648,
        -0.10767554491758347,
        0.006864325143396854,
        0.013477920554578304,
        -0.20764553546905518,
        -0.20410306751728058,
        -0.04310954734683037,
        -0.13094782829284668,
        0.1367323249578476,
        -0.046456579118967056,
        -0.024293946102261543,
        0.02498149313032627,
        -0.014850128442049026,
        0.11003878712654114,
        0.29547595977783203,
        -0.03752036765217781,
        0.004418728873133659,
        0.15425293147563934,
        0.016605116426944733,
        0.007572997827082872,
        -0.13806508481502533,
        -0.12567609548568726,
        -0.016048086807131767,
        0.14577864110469818,
        -0.010998987592756748,
        -0.06196499988436699,
        -0.2580653131008148,
        0.1502920687198639,
        -0.0158675629645586,
        -0.00484564621001482,
        -0.22584958374500275,
        -0.28099358081817627,
        -0.0587654709815979,
        0.001401948626153171,
        -0.008750190027058125,
        0.0395437516272068,
        0.013258579187095165,
        0.05499792844057083,
        0.1291304975748062,
        0.03634274750947952,
        0.29046007990837097,
        0.3335251212120056,
        -0.40683552622795105,
        -0.41254109144210815,
        0.026907548308372498,
        -0.0025703951250761747,
        0.049138106405735016,
        0.07778696715831757,
        0.11414162069559097,
        0.23455166816711426,
        -0.03468528762459755,
        0.07196971774101257
      ],
      "b": [
        4.462347030639648,
        4.652056694030762
      ]
    }
  ]
}