{
  "version": 1,
  "stateSize": 6,
  "actionSize": 2,
  "hiddenSizes": [
    32,
    32
  ],
  "trainedAt": 1777130302098,
  "totalSteps": 442300,
  "layers": [
    {
      "W": [
        0.3689883351325989,
        -1.1231647729873657,
        -0.8425397872924805,
        -0.31169041991233826,
        -0.23591601848602295,
        1.8365317583084106,
        -2.6070735454559326,
        -0.15497024357318878,
        -0.21977493166923523,
        0.1023922711610794,
        -3.0816149711608887,
        -1.0123435258865356,
        -0.001086331671103835,
        0.4200098216533661,
        0.9752925038337708,
        -1.0757216215133667,
        -5.731855392456055,
        -0.5221273899078369,
        -0.15420468151569366,
        -1.3839139938354492,
        -0.6775232553482056,
        -1.8737472295761108,
        -1.1346968412399292,
        -0.10129223763942719,
        -0.389469176530838,
        -0.8284639120101929,
        -0.5484967231750488,
        -0.5546776056289673,
        -0.7080228924751282,
        -0.19448761641979218,
        -2.6921708583831787,
        -0.5359165668487549,
        -0.5169721841812134,
        -5.248425006866455,
        0.1363755166530609,
        0.02515934407711029,
        -1.8932366371154785,
        -10.1642484664917,
        -4.5512824058532715,
        0.25009995698928833,
        -6.159737586975098,
        -2.9350674152374268,
        -5.165834426879883,
        -0.4513242840766907,
        -0.03234993293881416,
        -5.122135639190674,
        -7.521470069885254,
        -5.799825668334961,
        -5.823068618774414,
        -2.6347219944000244,
        0.16756801307201385,
        -0.4401630461215973,
        -0.8210393190383911,
        -0.12253271788358688,
        -0.7320795059204102,
        -0.0035293891560286283,
        -0.651607871055603,
        -1.088063359260559,
        -2.670807361602783,
        -0.6184707283973694,
        0.9416078925132751,
        -3.530393123626709,
        0.12683376669883728,
        -2.240917205810547,
        0.13221384584903717,
        -2.304969072341919,
        -0.8887068033218384,
        0.13286297023296356,
        1.2068088054656982,
        3.184760570526123,
        1.1687451601028442,
        0.6867820620536804,
        -0.986961841583252,
        0.5027442574501038,
        -4.106826305389404,
        -0.9558979868888855,
        -0.07755587995052338,
        -1.8832098245620728,
        -7.922990322113037,
        -1.7340378761291504,
        -9.856207847595215,
        -1.5533710718154907,
        3.896040678024292,
        -5.141383647918701,
        -1.045230507850647,
        -0.6359492540359497,
        -0.3184261620044708,
        -0.39295050501823425,
        0.5890569090843201,
        -1.100620150566101,
        -4.889273643493652,
        -2.4148383140563965,
        -2.9581236839294434,
        -5.119820594787598,
        -4.326726913452148,
        -2.391507148742676,
        -6.228476524353027,
        -2.3250932693481445,
        -0.059392739087343216,
        0.27044352889060974,
        -8.250226020812988,
        -24.451051712036133,
        -6.816227436065674,
        -4.131351947784424,
        -6.3391594886779785,
        -2.1441614627838135,
        -6.217385292053223,
        0.27609625458717346,
        -0.5830786228179932,
        -19.721343994140625,
        -10.040456771850586,
        -2.8217647075653076,
        3.010810136795044,
        -6.4364776611328125,
        1.1010299921035767,
        2.3736495971679688,
        0.37726446986198425,
        -0.8799479603767395,
        -0.6982723474502563,
        -0.5750605463981628,
        -3.2776880264282227,
        -0.8319642543792725,
        0.5491594076156616,
        1.6064374446868896,
        2.4086577892303467,
        -7.269310474395752,
        -0.24906080961227417,
        -2.310333728790283,
        -70.41735076904297,
        -8.399187088012695,
        -8.468584060668945,
        0.5860404968261719,
        -19.033626556396484,
        -38.806968688964844,
        -74.83415222167969,
        35.44702911376953,
        -22.85311508178711,
        -3.8710336685180664,
        -0.4186411499977112,
        -0.5925571322441101,
        -29.355600357055664,
        -23.664587020874023,
        -28.864154815673828,
        -12.239601135253906,
        -23.058624267578125,
        -17.550960540771484,
        26.899930953979492,
        12.128719329833984,
        -3.8707563877105713,
        8.26640796661377,
        0.1646115481853485,
        -0.8224619030952454,
        48.07368850708008,
        -0.7022081017494202,
        -17.639488220214844,
        -24.613859176635742,
        -44.836090087890625,
        -52.33131790161133,
        -6.0446977615356445,
        -11.339488983154297,
        -65.847412109375,
        -2.9208359718322754,
        -39.456424713134766,
        -41.298744201660156,
        -2.606581926345825,
        15.878021240234375,
        -135.63400268554688,
        -254.72247314453125,
        -40.53268051147461,
        -5.312493324279785,
        -11.045743942260742,
        -0.00943759549409151,
        56.92494583129883,
        8.205062866210938,
        29.244760513305664,
        -21.984481811523438,
        -64.7127456665039,
        -22.90377426147461,
        194.49061584472656,
        137.07469177246094,
        2.287409543991089,
        -87.270263671875,
        0.6429418325424194,
        -1.3850153684616089,
        67.8331527709961,
        -0.7256028652191162,
        -4.228590488433838,
        2.4932475090026855,
        11.977348327636719,
        -33.903594970703125,
        -14.524065971374512,
        -7.095412254333496
      ],
      "b": [
        18.110584259033203,
        5.964390754699707,
        17.596723556518555,
        34.886329650878906,
        12.148971557617188,
        2.6764004230499268,
        21.713632583618164,
        -65.3417739868164,
        4.183759689331055,
        -4.297206878662109,
        1.961146593093872,
        -0.3891203999519348,
        28.819272994995117,
        8.488393783569336,
        16.182411193847656,
        9.13559627532959,
        26.557849884033203,
        4.303902626037598,
        -27.188417434692383,
        31.544485092163086,
        19.395366668701172,
        -23.059633255004883,
        -0.08758130669593811,
        -0.8008129000663757,
        -21.327768325805664,
        0,
        0.8029996156692505,
        30.1617488861084,
        31.160825729370117,
        6.568481922149658,
        0.859409511089325,
        8.680526733398438
      ]
    },
    {
      "W": [
        -0.34159374237060547,
        -0.13801628351211548,
        -0.2015865296125412,
        -0.04674328863620758,
        -0.4969998896121979,
        0.021633731201291084,
        -0.004498742055147886,
        -3.3143420219421387,
        -1.108924150466919,
        -0.39470914006233215,
        -0.14465445280075073,
        -1.0407264232635498,
        -0.340544193983078,
        -0.12336119264364243,
        -0.9143356680870056,
        -0.011393081396818161,
        -0.3010088801383972,
        -1.5811392068862915,
        -0.025208961218595505,
        -0.27431249618530273,
        -0.050391197204589844,
        -0.14679762721061707,
        -0.6485388875007629,
        -1.0939843654632568,
        0.006040587089955807,
        -0.2815949618816376,
        -0.16631454229354858,
        -1.058261513710022,
        -1.2841910123825073,
        -0.13174885511398315,
        -3.3277711868286133,
        -0.4624575972557068,
        -0.18238700926303864,
        -0.17670002579689026,
        -0.05370182543992996,
        0.3196203410625458,
        -1.3054068088531494,
        -3.1437737941741943,
        0.2503068149089813,
        0.6194559931755066,
        0.06078684329986572,
        -0.3963325619697571,
        -1.1687002182006836,
        -0.21947278082370758,
        -0.1602710336446762,
        -1.163240671157837,
        1.1833375692367554,
        -0.39064520597457886,
        -0.5198742747306824,
        -3.525747060775757,
        -0.8489875197410583,
        -3.4617152214050293,
        -0.702613890171051,
        -0.3605617880821228,
        -2.2458088397979736,
        -1.8113144636154175,
        -0.44029271602630615,
        -1.453620195388794,
        1.149735927581787,
        -0.7177610397338867,
        -0.13794198632240295,
        -0.261297345161438,
        -0.17590786516666412,
        -0.22371722757816315,
        -0.372588574886322,
        -0.09669239819049835,
        0.5097804665565491,
        0.24391640722751617,
        -0.11385267227888107,
        1.4936065673828125,
        -0.4719957709312439,
        -2.000962495803833,
        -0.21492712199687958,
        0.05209268629550934,
        -2.3792362213134766,
        -1.1643178462982178,
        -1.031258463859558,
        -0.24337196350097656,
        -1.4303417205810547,
        -0.6881365776062012,
        2.736381769180298,
        0.20528769493103027,
        -0.31938642263412476,
        -1.1015377044677734,
        -0.2479207068681717,
        -0.15006709098815918,
        1.0766857862472534,
        -0.24857600033283234,
        -0.6085904240608215,
        -1.6205254793167114,
        -0.8483293056488037,
        -3.893977165222168,
        -0.8171557188034058,
        -1.1271790266036987,
        0.8738576173782349,
        0.03491712734103203,
        -0.18220888078212738,
        -0.061835385859012604,
        -0.5491083860397339,
        -0.13836944103240967,
        -0.3105839788913727,
        -3.3127267360687256,
        -0.17457982897758484,
        0.7102333903312683,
        -0.750309944152832,
        -0.08718682080507278,
        -0.10429412871599197,
        -0.5848184823989868,
        -2.1944425106048584,
        -0.44274190068244934,
        -3.902024269104004,
        -1.5008753538131714,
        -1.582383155822754,
        -1.7558327913284302,
        -1.9748784303665161,
        -0.448569655418396,
        -0.0055804746225476265,
        -0.14780452847480774,
        0.05166460573673248,
        -0.5147141218185425,
        -2.963099479675293,
        -0.08086203038692474,
        -0.6141113042831421,
        -0.6248788833618164,
        -0.843915581703186,
        -0.33295562863349915,
        -2.9858150482177734,
        -0.6673926115036011,
        -0.6813920736312866,
        -0.09058904647827148,
        -0.020073357969522476,
        -0.6187246441841125,
        -0.7502821087837219,
        -5.410099506378174,
        -0.4369792342185974,
        -2.1602675914764404,
        0.4844653904438019,
        -0.07666250318288803,
        -0.3982907831668854,
        -0.09525100886821747,
        -0.9465463757514954,
        -2.1931326389312744,
        1.035644292831421,
        -0.8429868817329407,
        0.4470190703868866,
        0.08470267057418823,
        -0.0064514633268117905,
        -0.5748917460441589,
        -0.02037179470062256,
        0.001611551153473556,
        -2.275376558303833,
        -0.2676115334033966,
        -0.22788915038108826,
        -0.3860841989517212,
        0.3742356300354004,
        -2.087648868560791,
        -1.4826810359954834,
        -0.4561271667480469,
        -0.28066354990005493,
        -0.039550311863422394,
        -0.9275882244110107,
        -0.8849584460258484,
        -0.5501258373260498,
        -0.6321804523468018,
        -1.8346153497695923,
        -3.7488999366760254,
        -2.708515167236328,
        -6.139461994171143,
        -0.5679091215133667,
        -0.02636888064444065,
        -0.7516013383865356,
        -0.5185979008674622,
        -2.7728071212768555,
        -0.4949014484882355,
        -0.7519179582595825,
        -1.2901517152786255,
        -0.060877833515405655,
        -1.216493844985962,
        -0.4251043498516083,
        -2.269382953643799,
        -0.12887094914913177,
        -0.8849793076515198,
        -0.26565462350845337,
        0.6339723467826843,
        -1.0121349096298218,
        -0.0030398035887628794,
        -0.2390114814043045,
        -0.5011740922927856,
        -0.46373581886291504,
        -1.420617938041687,
        -2.9828858375549316,
        -0.22823883593082428,
        -0.027594024315476418,
        -0.6225560903549194,
        -2.0406296253204346,
        -0.9052950739860535,
        -0.25320860743522644,
        -0.9818395376205444,
        -0.875091552734375,
        1.4732494354248047,
        -0.8549530506134033,
        -1.5354334115982056,
        -0.7103875875473022,
        -0.2848193049430847,
        -0.3227175176143646,
        -1.8869144916534424,
        0.5477398037910461,
        -1.448798656463623,
        0.2537049949169159,
        -0.3533676564693451,
        -4.178930282592773,
        0.3544469475746155,
        -1.053971290588379,
        -0.457416296005249,
        -6.804903507232666,
        -0.9112805724143982,
        -0.271687775850296,
        -0.9618903994560242,
        -7.003215789794922,
        1.5694533586502075,
        -1.3519952297210693,
        0.914726972579956,
        -0.569385290145874,
        -0.6033830642700195,
        -0.4683832824230194,
        -0.4070512354373932,
        -1.2516087293624878,
        -0.6611291766166687,
        -3.0717782974243164,
        0.8185856342315674,
        -3.097648859024048,
        -5.559147357940674,
        -1.1968640089035034,
        -0.0934666320681572,
        -1.0280215740203857,
        -1.0811258554458618,
        -0.2007599025964737,
        -1.0537843704223633,
        -5.766212463378906,
        -2.3156349658966064,
        0.5925171375274658,
        -2.360877513885498,
        -1.3021655082702637,
        -0.04344668984413147,
        -3.346778154373169,
        -1.4257886409759521,
        -0.7726979851722717,
        -1.5914709568023682,
        -0.1039661318063736,
        -0.5959566235542297,
        -1.5850613117218018,
        -8.962821006774902,
        -4.2171735763549805,
        -0.8641689419746399,
        -6.494743347167969,
        -0.14633309841156006,
        -0.2279645800590515,
        -0.49229303002357483,
        -0.4423070251941681,
        -0.3898211419582367,
        -1.2226347923278809,
        -2.5963938236236572,
        -0.5244948267936707,
        -0.29721584916114807,
        -0.34580758213996887,
        -0.5752968788146973,
        0.7177705764770508,
        -0.4829810559749603,
        -0.39961788058280945,
        -0.048120107501745224,
        1.2794294357299805,
        -0.7547550201416016,
        -0.6355540752410889,
        0.2646579444408417,
        -0.4948258101940155,
        -0.2673124670982361,
        0.6018391847610474,
        -0.8053388595581055,
        0.12043976783752441,
        -0.7842849493026733,
        -0.44905856251716614,
        -1.0046437978744507,
        -0.8098934292793274,
        -0.06256815046072006,
        -0.6753838062286377,
        -0.8464441299438477,
        0.9851700663566589,
        0.0005926645826548338,
        -0.24846002459526062,
        0.2705513536930084,
        -0.37776756286621094,
        0.11248455941677094,
        -0.35370928049087524,
        0.37086614966392517,
        0.4443301558494568,
        -2.238846778869629,
        0.11687035858631134,
        -0.19244523346424103,
        -0.314480185508728,
        -2.0477547645568848,
        -0.25408315658569336,
        -0.5355528593063354,
        0.26258614659309387,
        -0.5192810297012329,
        0.06429969519376755,
        -0.8502144813537598,
        -0.3259308636188507,
        -0.34521326422691345,
        0.1433323323726654,
        0.2366858869791031,
        -0.3988436162471771,
        0.15113016963005066,
        -0.25454625487327576,
        -0.8205300569534302,
        0.3802117109298706,
        -0.33463820815086365,
        0.7261812090873718,
        -0.32000139355659485,
        -0.6656668186187744,
        0.36995744705200195,
        -0.2143639624118805,
        -0.8481963276863098,
        -0.03584299236536026,
        -0.5184423923492432,
        0.16525276005268097,
        -1.940593957901001,
        -2.110124349594116,
        2.002537250518799,
        -0.17072632908821106,
        -0.5474346876144409,
        -0.42504259943962097,
        -0.47966983914375305,
        -1.403970718383789,
        -1.693818211555481,
        -4.603900909423828,
        0.11093347519636154,
        0.10696991533041,
        0.30010420083999634,
        -0.22633691132068634,
        0.06847502291202545,
        -1.1632890701293945,
        -2.3960278034210205,
        -0.4068149924278259,
        -0.7129462361335754,
        -0.049699246883392334,
        -1.7060223817825317,
        -1.095715045928955,
        -3.8808395862579346,
        -0.35279136896133423,
        0.37872937321662903,
        -4.474572658538818,
        -0.3271760642528534,
        -0.3342209458351135,
        -0.515221357345581,
        -0.0004207993333693594,
        0.48351433873176575,
        -0.01216762326657772,
        0.015548008494079113,
        0.5560780167579651,
        -0.18609586358070374,
        -0.5702011585235596,
        0.24282138049602509,
        -0.018837587907910347,
        0.30563217401504517,
        -0.322480171918869,
        0.2012200504541397,
        -0.3983174264431,
        0.17691481113433838,
        0.07796625047922134,
        -0.17921976745128632,
        0.2631448805332184,
        0.21633341908454895,
        0.5067710280418396,
        0.23475266993045807,
        -0.13216178119182587,
        0.19512398540973663,
        0.240334153175354,
        -0.034653160721063614,
        -0.014691411517560482,
        0.3729034960269928,
        0.4930073320865631,
        -0.0862085297703743,
        1.0461854934692383,
        0.313414067029953,
        -0.06780558079481125,
        -0.11414651572704315,
        -0.25520482659339905,
        -0.3970920443534851,
        -0.003726365976035595,
        -0.4123162031173706,
        -2.500629425048828,
        -2.39231276512146,
        -0.5186395645141602,
        -0.3749608099460602,
        -0.012323467060923576,
        0.10835421830415726,
        -3.180887460708618,
        0.02288062870502472,
        -1.6243774890899658,
        -1.3833602666854858,
        -0.19226491451263428,
        -1.3778079748153687,
        -3.9806854724884033,
        -0.6450362205505371,
        -0.759094774723053,
        -0.1789044886827469,
        -0.3256353735923767,
        0.8343634605407715,
        -0.2362211048603058,
        -2.399820327758789,
        -1.6680750846862793,
        -1.3234429359436035,
        -1.5307601690292358,
        -0.6538082957267761,
        -2.2014753818511963,
        -0.16369761526584625,
        -0.08023341745138168,
        -0.02120552398264408,
        -0.10261576622724533,
        -0.2936117947101593,
        -0.6592437028884888,
        -1.2755951881408691,
        -0.46182316541671753,
        1.3921386003494263,
        -0.5245441794395447,
        -0.20700344443321228,
        0.010826658457517624,
        -1.791721224784851,
        -0.5053896903991699,
        -0.4831292927265167,
        -0.8997824192047119,
        0.024333089590072632,
        0.6761484146118164,
        -5.020168304443359,
        -0.8987680673599243,
        -0.27241310477256775,
        -0.3486746847629547,
        -0.9909523129463196,
        -0.6732193827629089,
        0.7631888389587402,
        -0.5179789066314697,
        1.0452901124954224,
        -1.0902067422866821,
        -2.131215810775757,
        0.0619986392557621,
        -1.0251878499984741,
        -1.110727310180664,
        -0.08689841628074646,
        -0.7756597399711609,
        0.09776324033737183,
        0.0038134558126330376,
        -0.25912797451019287,
        -0.5079622268676758,
        2.5824689865112305,
        -0.8030518293380737,
        1.1676570177078247,
        0.21061785519123077,
        -0.1449434757232666,
        -0.7475050091743469,
        -0.09230179339647293,
        -0.4069223999977112,
        -0.9669572710990906,
        -0.029717888683080673,
        -2.6927969455718994,
        -0.5150251984596252,
        0.24216215312480927,
        -2.1004884243011475,
        0.2639930248260498,
        -1.3501553535461426,
        -1.4626802206039429,
        -8.127148628234863,
        -0.9691926836967468,
        0.5195806622505188,
        -2.454002857208252,
        0.3502146899700165,
        2.4898569583892822,
        -2.345005989074707,
        1.3869850635528564,
        -2.4237964153289795,
        -0.15664851665496826,
        -0.13329342007637024,
        -1.562707781791687,
        -0.7797690629959106,
        -0.20339170098304749,
        -0.28804102540016174,
        -0.19671310484409332,
        -0.3557578921318054,
        -1.0255616903305054,
        -0.38627901673316956,
        -0.4425434470176697,
        -0.15046057105064392,
        0.31413620710372925,
        -1.148055076599121,
        -1.143026351928711,
        0.11839698255062103,
        0.12198071926832199,
        0.6716029047966003,
        -1.799380898475647,
        0.17834796011447906,
        -2.346029281616211,
        -0.03990490362048149,
        -0.3636937439441681,
        -0.0676274523139,
        -0.8211113214492798,
        -0.8774310350418091,
        1.0135942697525024,
        -0.8388879299163818,
        -0.3980734348297119,
        -0.3366122841835022,
        0.1921282410621643,
        -0.5585918426513672,
        -0.02901776134967804,
        -0.09766843169927597,
        -1.770959496498108,
        -0.24696379899978638,
        -0.2495347410440445,
        -0.5374053120613098,
        -0.7595548629760742,
        0.19153626263141632,
        -0.9039119482040405,
        -0.023708442226052284,
        -0.09114397317171097,
        -1.1526836156845093,
        0.40136855840682983,
        -0.29375213384628296,
        -2.44339919090271,
        -1.1598182916641235,
        -0.9389195442199707,
        0.17497722804546356,
        -0.17762871086597443,
        -0.07640284299850464,
        0.20456066727638245,
        -1.2143467664718628,
        -0.08595217764377594,
        0.5079804062843323,
        -0.35436320304870605,
        -0.1284545660018921,
        -0.8707000017166138,
        0.08324003219604492,
        -0.27728915214538574,
        -2.0380966663360596,
        -0.4155847430229187,
        0.5734431743621826,
        -0.28490573167800903,
        0.43336161971092224,
        -1.571401834487915,
        -0.3328626751899719,
        0.16847392916679382,
        0.003171198535710573,
        -2.276604413986206,
        -0.7253580093383789,
        0.5053263902664185,
        0.29768046736717224,
        0.04908398911356926,
        -0.9147821068763733,
        -1.9039078950881958,
        -1.260594367980957,
        -1.5985804796218872,
        -0.3615245223045349,
        -0.3708108067512512,
        -0.11041784286499023,
        -0.36298975348472595,
        -0.909930944442749,
        -0.4659966826438904,
        -0.3658504784107208,
        0.055219344794750214,
        -3.9665708541870117,
        -0.31555861234664917,
        -0.1561639904975891,
        -0.901820719242096,
        -2.5579888820648193,
        0.029961712658405304,
        -1.5133247375488281,
        -0.6521845459938049,
        -1.1093709468841553,
        -0.745903491973877,
        -0.4875008165836334,
        -1.0011557340621948,
        -3.388035535812378,
        -0.9279435873031616,
        -2.830925464630127,
        -0.541985809803009,
        -4.659048557281494,
        -0.6217469573020935,
        -1.8054379224777222,
        -0.353068470954895,
        -3.1021554470062256,
        -11.724130630493164,
        -0.4315183460712433,
        -1.7938975095748901,
        -6.259304523468018,
        -5.2145819664001465,
        0.06857316941022873,
        -2.683234453201294,
        -1.0340365171432495,
        -4.706557750701904,
        -1.5523802042007446,
        -1.6139553785324097,
        -1.872328281402588,
        -0.2152864784002304,
        -1.1733143329620361,
        -3.127992630004883,
        -2.131701707839966,
        -1.414408802986145,
        -7.955050468444824,
        -0.05625322833657265,
        -1.9844844341278076,
        -0.40174397826194763,
        -0.6673855781555176,
        -4.919771671295166,
        -3.2375879287719727,
        -0.3942160904407501,
        -1.3250659704208374,
        -1.6623817682266235,
        -2.0670223236083984,
        -0.050588060170412064,
        -1.3222929239273071,
        -0.40182173252105713,
        -8.618635177612305,
        -3.4141409397125244,
        -0.857897162437439,
        -0.5710996985435486,
        0.21704193949699402,
        -0.4410596489906311,
        -0.263134241104126,
        -1.49839186668396,
        -5.133256435394287,
        -1.4999819993972778,
        -1.9938679933547974,
        -2.7602803707122803,
        -3.9821555614471436,
        -1.0225664377212524,
        -0.3747667968273163,
        -1.9748340845108032,
        -0.10594707727432251,
        -4.542993068695068,
        -1.1500765085220337,
        0.24928052723407745,
        -7.8289947509765625,
        -0.393069326877594,
        -0.3833121061325073,
        -0.1785576492547989,
        -0.8782869577407837,
        -0.1925538331270218,
        -1.1472172737121582,
        -0.297044962644577,
        -0.5443018674850464,
        -11.61922550201416,
        -0.3621566891670227,
        0.14596283435821533,
        -1.6342881917953491,
        -0.40855520963668823,
        -0.39178913831710815,
        -0.45816853642463684,
        -1.7914451360702515,
        -0.4368826746940613,
        2.9753780364990234,
        0.06100333482027054,
        -1.9050954580307007,
        0.08834221214056015,
        -0.4069770872592926,
        -0.6762661933898926,
        -4.077638149261475,
        -32.84859848022461,
        -0.35110169649124146,
        -2.478891134262085,
        -0.8036140203475952,
        -1.784602403640747,
        -3.85343599319458,
        -5.167814254760742,
        -5.597560882568359,
        0.40542587637901306,
        -0.06455667316913605,
        -0.8380164504051208,
        -0.2464001625776291,
        -1.3383861780166626,
        -0.29744574427604675,
        -4.856857776641846,
        -1.9586963653564453,
        1.0665620565414429,
        0.17788977921009064,
        -0.19813254475593567,
        -0.19362661242485046,
        -2.3489649295806885,
        -0.7443447709083557,
        -1.0154873132705688,
        -2.367426633834839,
        -1.0044440031051636,
        -4.304383277893066,
        -0.20418789982795715,
        -0.5947005152702332,
        -0.0986144095659256,
        -1.4836243391036987,
        -0.32482320070266724,
        -8.577099800109863,
        3.434478282928467,
        -1.4143702983856201,
        -0.2563706934452057,
        -0.0046301898546516895,
        3.649001359939575,
        -0.17026472091674805,
        -0.31970831751823425,
        -3.272545576095581,
        -0.01868637092411518,
        0.008412021212279797,
        -0.4117305278778076,
        0.37448903918266296,
        -0.20520752668380737,
        -0.006817258428782225,
        0.23602788150310516,
        0.05454523488879204,
        0.2184632122516632,
        -0.10753597319126129,
        0.19955943524837494,
        -0.014959403313696384,
        -0.3519449234008789,
        0.038367077708244324,
        -0.13735856115818024,
        0.04390891268849373,
        -0.5305249094963074,
        0.4027930200099945,
        -0.01140818651765585,
        0.48754873871803284,
        -0.21331676840782166,
        -0.22722551226615906,
        -0.0042683579958975315,
        0.21315957605838776,
        -0.06568719446659088,
        -0.012356989085674286,
        0.06137096881866455,
        0.1188880205154419,
        0.40787678956985474,
        0.20721276104450226,
        -0.26755839586257935,
        0.8054025173187256,
        0.1846088320016861,
        -0.2594396770000458,
        -0.19778551161289215,
        0.23002976179122925,
        -0.4862481951713562,
        0.10770689696073532,
        0.34001123905181885,
        -0.2594524621963501,
        -0.22362202405929565,
        0.2849048674106598,
        -0.025632841512560844,
        -0.14370357990264893,
        0.10627547651529312,
        -0.3031785786151886,
        -0.10921774804592133,
        0.07837805896997452,
        -0.10323493927717209,
        0.21039466559886932,
        -0.6130751371383667,
        -0.18059663474559784,
        0.274638831615448,
        -0.11592309176921844,
        -0.7036259770393372,
        0.2900950312614441,
        -0.016619885340332985,
        -0.06728801876306534,
        -0.19228285551071167,
        -0.40045836567878723,
        -0.0057371994480490685,
        -0.1870458722114563,
        0.016341136768460274,
        0.2558593451976776,
        -0.24566587805747986,
        -0.6052024364471436,
        -5.136729717254639,
        -0.8207947015762329,
        -0.47526121139526367,
        -0.18942122161388397,
        -0.2082957625389099,
        -1.7517187595367432,
        -4.017977714538574,
        -0.9212715029716492,
        -0.6124172210693359,
        -0.02866184152662754,
        -2.9785189628601074,
        -0.6041895747184753,
        -3.135413885116577,
        -4.899113178253174,
        -0.12995073199272156,
        0.2054722160100937,
        -1.932725429534912,
        -1.8874329328536987,
        -0.7227275371551514,
        -1.11876380443573,
        -2.6350789070129395,
        -1.8304177522659302,
        1.0184459686279297,
        -0.4192485809326172,
        -3.295449733734131,
        -0.6135779023170471,
        -5.091975212097168,
        -4.364131450653076,
        -2.700269937515259,
        -1.079111933708191,
        -0.3765168786048889,
        0.0452893003821373,
        0.045208435505628586,
        -0.20766711235046387,
        0.04778112843632698,
        -0.0033321117516607046,
        -0.20857082307338715,
        -0.011849806644022465,
        0.04733514413237572,
        -0.0831422358751297,
        -0.6602227687835693,
        0.015696650370955467,
        0.219765305519104,
        0.2800524830818176,
        0.1475529670715332,
        -0.3542095124721527,
        0.31021034717559814,
        -0.20015311241149902,
        -0.6290289759635925,
        -0.10494871437549591,
        0.43765702843666077,
        0.09342702478170395,
        0.42094534635543823,
        -0.28682979941368103,
        0.2506573498249054,
        0.02533101476728916,
        -0.07003547251224518,
        -0.40275540947914124,
        0.12745270133018494,
        -0.33564165234565735,
        0.160069540143013,
        0.2273421585559845,
        -0.2903904914855957,
        -0.5663899779319763,
        -1.2896724939346313,
        -2.2959794998168945,
        -0.2822037935256958,
        0.03078193962574005,
        1.184651494026184,
        -0.1943420022726059,
        -1.2613556385040283,
        0.29269129037857056,
        -0.07741054892539978,
        -0.020719660446047783,
        -0.7141725420951843,
        -2.4251203536987305,
        -1.3564187288284302,
        -0.8496868014335632,
        -0.3106071352958679,
        0.7927537560462952,
        -0.3595958948135376,
        -3.399764060974121,
        -0.2068989872932434,
        -0.7996215224266052,
        -0.969366729259491,
        -0.2736915051937103,
        -3.075843572616577,
        -1.3141404390335083,
        -0.7916706800460815,
        0.28442540764808655,
        -1.1874866485595703,
        -0.007018328178673983,
        -2.604395866394043,
        1.046416997909546,
        0.13876183331012726,
        -0.025935839861631393,
        -0.022231442853808403,
        0.004489787854254246,
        -0.14521867036819458,
        -0.45310890674591064,
        -0.5931273698806763,
        -1.0732098817825317,
        0.7029066681861877,
        -0.004432260524481535,
        -0.02377978339791298,
        -0.9590578675270081,
        -0.03374185413122177,
        -2.304917812347412,
        -0.2691081166267395,
        -0.033651597797870636,
        -2.998971462249756,
        -1.0008383989334106,
        0.009524299763143063,
        -0.03767992556095123,
        -0.7370225787162781,
        -0.1590437889099121,
        -1.1542456150054932,
        -1.367461085319519,
        -0.08045963197946548,
        -0.33884578943252563,
        -0.0004623534332495183,
        -0.5243585705757141,
        -2.265887975692749,
        -0.927648663520813,
        -1.3899661302566528,
        -0.4743283987045288,
        -0.4449469745159149,
        -0.05737946555018425,
        -0.6176319718360901,
        -0.015506895259022713,
        -0.7248995304107666,
        -0.007719053421169519,
        -2.23195481300354,
        -0.038353174924850464,
        0.004708315711468458,
        -1.580086350440979,
        -0.7524123191833496,
        -0.6215737462043762,
        -3.5875189304351807,
        -2.3081398010253906,
        -2.16766095161438,
        -0.4020521640777588,
        -0.12336175888776779,
        0.21323415637016296,
        -0.8706651926040649,
        -0.16504216194152832,
        -0.7339475750923157,
        -1.722241759300232,
        -2.601553201675415,
        -2.536954641342163,
        -2.641645669937134,
        -0.7500840425491333,
        -2.263205051422119,
        -2.5909581184387207,
        -0.00029621468274854124,
        -0.0848318561911583,
        -3.7375776767730713,
        -0.46764928102493286,
        -0.05151714012026787,
        -0.3098601698875427,
        -0.6049332022666931,
        0.07877261191606522,
        -0.29633498191833496,
        1.8823115825653076,
        -0.32685625553131104,
        -1.1014622449874878,
        1.2474128007888794,
        -0.12765319645404816,
        -0.16283375024795532,
        -0.12564457952976227,
        0.0892593115568161,
        0.014955895021557808,
        -0.7823631763458252,
        -1.1782045364379883,
        -1.9592911005020142,
        0.38013026118278503,
        -0.07973261177539825,
        -0.5859997272491455,
        -0.021413080394268036,
        -1.7520005702972412,
        -0.1147480234503746,
        -0.2587030827999115,
        -0.08160871267318726,
        -0.7688086628913879,
        -0.5735213756561279,
        -0.1501869261264801,
        0.28146058320999146,
        -0.2386704385280609,
        0.22420625388622284,
        -6.368875503540039,
        -0.3614198565483093,
        0.3453153669834137,
        0.20404879748821259,
        -0.5267940163612366,
        -0.2721792161464691,
        0.037786249071359634,
        2.456895589828491,
        -0.4375421404838562,
        1.2491252422332764,
        -0.2887958288192749,
        0.15113598108291626,
        0.13946178555488586,
        0.8534519672393799,
        0.145628422498703,
        -0.5586646199226379,
        -1.8730504512786865,
        -0.19685576856136322,
        -1.505334496498108,
        -0.05948182940483093,
        -1.3826841115951538,
        -0.05683109536767006,
        -0.2296173870563507,
        0.7336466312408447,
        0.7107709050178528,
        -1.369275450706482,
        0.813226580619812,
        -0.2771432101726532,
        -0.37032702565193176,
        4.921145915985107,
        -1.1640193462371826,
        0.25173085927963257,
        -0.8809373378753662,
        0.3676292300224304,
        -0.4298151433467865,
        -0.10152698308229446,
        0.25435101985931396,
        0.032643504440784454,
        -2.2488961219787598,
        -2.41684889793396,
        -0.5643154382705688,
        -2.9087777137756348,
        -0.4382070004940033,
        -0.5112930536270142,
        -2.5637588500976562,
        -0.684805154800415,
        -0.6680528521537781,
        -0.6365398168563843,
        -4.1601667404174805,
        -0.14170731604099274,
        -0.9297818541526794,
        0.06257784366607666,
        1.2687840461730957,
        -0.816223680973053,
        0.2803820073604584,
        0.39692452549934387,
        -2.728989839553833,
        -0.2693694233894348,
        0.4336632192134857,
        -0.46858659386634827,
        -0.8660756349563599,
        -4.584752559661865,
        -0.11295460164546967,
        -1.1246148347854614,
        0.7724862694740295,
        0.05896870046854019
      ],
      "b": [
        -1.2436013221740723,
        -0.6712658405303955,
        -1.4968953132629395,
        -1.0675044059753418,
        -0.39948517084121704,
        -8.706549644470215,
        -0.46382051706314087,
        23.8394718170166,
        -1.585442066192627,
        -0.7084504961967468,
        -0.25420793890953064,
        -0.05490441992878914,
        -0.0069777220487594604,
        -4.084733009338379,
        -0.6645836234092712,
        -3.9221696853637695,
        55.64776611328125,
        -4.8962788581848145,
        -0.5927004218101501,
        -0.7675839066505432,
        -0.08382408320903778,
        -0.5652743577957153,
        -7.312706470489502,
        11.24822998046875,
        -3.1518218517303467,
        -2.1079277992248535,
        -5.488131999969482,
        -0.239964559674263,
        0.7499138712882996,
        4.822465419769287,
        19.885011672973633,
        -0.6545303463935852
      ]
    },
    {
      "W": [
        -0.12940384447574615,
        -0.10369160026311874,
        -0.0016828184016048908,
        -0.09366733580827713,
        -0.043513279408216476,
        0.017239859327673912,
        -0.0562567412853241,
        0.07991400361061096,
        0.40661442279815674,
        0.024129973724484444,
        0.055639490485191345,
        0.06220054626464844,
        -0.2091960459947586,
        -0.3605102300643921,
        -0.21981075406074524,
        -0.2295328974723816,
        0.11636167764663696,
        -0.02595463953912258,
        -0.015007918700575829,
        0.049719106405973434,
        -0.031033575534820557,
        -0.020695123821496964,
        -0.018918117508292198,
        -0.008259976282715797,
        -0.02340775541961193,
        -0.024331627413630486,
        -0.010074024088680744,
        0.005015373229980469,
        0.046523842960596085,
        0.019029049202799797,
        -0.05258912220597267,
        -0.018781138584017754,
        -0.24108384549617767,
        -0.23799161612987518,
        0.1049189567565918,
        0.05781874433159828,
        -0.022314084693789482,
        -0.04877256229519844,
        -0.00028470068355090916,
        -0.009861691854894161,
        0.02425975538790226,
        -0.048869915306568146,
        0.021709037944674492,
        -0.003954184241592884,
        -0.06105838716030121,
        0.018739618360996246,
        0.12015493959188461,
        0.11762405186891556,
        -0.06361199915409088,
        -0.08597401529550552,
        0.11011231690645218,
        -0.021402625367045403,
        0.04596491903066635,
        0.0775771513581276,
        -0.005986374337226152,
        -0.00568984542042017,
        0.1349959522485733,
        0.2360813170671463,
        0.48994675278663635,
        0.3556625247001648,
        0.025357842445373535,
        -0.10997102409601212,
        0.009097633883357048,
        0.048529185354709625
      ],
      "b": [
        3.791292667388916,
        3.84271502494812
      ]
    }
  ]
}